tree
version=v4
num_class=23
num_tree_per_iteration=23
label_index=0
max_feature_idx=41
objective=multiclass num_class:23
feature_names=Column_0 Column_1 Column_2 Column_3 Column_4 Column_5 Column_6 Column_7 Column_8 Column_9 Column_10 Column_11 Column_12 Column_13 Column_14 Column_15 Column_16 Column_17 Column_18 Column_19 Column_20 Column_21 Column_22 Column_23 Column_24 Column_25 Column_26 Column_27 Column_28 Column_29 Column_30 Column_31 Column_32 Column_33 Column_34 Column_35 Column_36 Column_37 Column_38 Column_39 Column_40 Column_41
feature_infos=[0:1] [0:1] [0:1] [0:1] [0:1] [0:1] [0:1] [0:1] none [0:1] [0:0.80000000000000004] [0:1] [0:1] [0:1] [0:1] [0:1] [0:0.93023255813953487] [0:1] [0:1] none none [0:1] [0:1] [0:1] [0:1] [0:1] [0:1] [0:1] [0:1] [0:1] [0:1] [0:1] [0:1] [0:1] [0:1] [0:1] [0:1] [0:1] [0:1] [0:1] [0:1] [0:1]
tree_sizes=578 1330 2900 1000 3109 777 1226 1682 1670 1005 3388 2228 1261 581 1654 996 3556 890 1635 2616 1203 1091 1546 3636 3646 3530 3677 3544 3553 3695 3698 3702 3522 3372 3444 3705 3737 3652 3570 3541 3429 3606 3576 3618 3548 3573 3642 3563 3555 3684 3612 3511 3719 3697 3706 3553 3410 3453 3770 3752 3677 3493 3697 3449 3596 3680 3625 3453 3546 3632 3538 3539 3690 3674 3416 3700 3713 3725 3565 3434 3470 3752 3734 3657 3502 3542 3423 3550 3762 3634 3531 3511 3611 3543 3654 3677 3678 3489 3707 3619 3732 3558 3424 3428 3787 3755 3603 3467 3677 3437 3606 3748 3594 3439 3566 3535 3593 3548 3695 3626 3421 3709 3681 3579 3537 3464 3450 3778 3752 3657 3447 3700 3405 3417 3706 3583 3570 3566 3558 3525 3592 3650 3694 3401 3726 3640 3518 3565 3438 3483 3778 3754 3645 3437 3541 3431 3493 3588 3682 3413 3603 3576 3571 3687 3703 3663 3400 3724 3666 3558 3576 3480 3440 3778 3552 3649 3453 3715 3430 3512 3654 3609 3436 3610 3463 3559 3523 3639 3664 3425 3565 3561 3543 3582 3483 3430 3790 3656 3640 3482 3533 3498 3580 3646 3621 3422 3640 3546 3578 3543 3625 3654 3488 3718 3539 3535 3566 3467 3382 3786 3739 3667 3467 3564 3493 3512 3690 3670 3440 3718 3663 3564 3532 3646 3655 3422 3684 3545 3558 3571 3489 3379 3784 3603 3635 3491 3652 3494 3483 3678 3654 3487 3607 3607 3595 3564 3697 3660 3431 3639 3550 3547 3571 3463 3389 3795 3572 3662 3480 3552 3467 3456 3645 3608 3453 3529 3623 3611 3546 3701 3716 3469 3532 3550 3520 3560 3462 3384 3767 3658 3655 3470 3594 3439 3516 3601 3632 3465 3563 3606 3593 3616 3677 3689 3442 3618 3546 3589 3584 3498 3406 3807 3587 3657 3481 3524 3421 3491 3701 3591 3472 3588 3592 3613 3542 3661 3620 3462 3637 3544 3581 3488 3473 3404 3793 3590 3648 3472 3628 3438 3526 3676 3631 3494 3616 3630 3609 3573 3684 3653 3455 3658 3571 3555 3554 3483 3398 3793 3583 3674 3455 3579 3441 3465 3718 3637 3516 3624 3653 3546 3558 3687 3663 3403 3650 3552 3599 3505 3396 3406 3809 3585 3644 3435 3636 3390 3561 3706 3605 3498 3670 3604 3641 3647 3693 3638 3429 3627 3549 3611 3581 3407 3421 3800 3596 3654 3449 3627 3475 3538 3597 3601 3468 3667 3572 3638 3618 3707 3640 3400 3591 3558 3603 3571 3464 3399 3792 3662 3664 3438 3547 3433 3484 3641 3621 3512 3651 3564 3616 3625 3724 3663 3370 3685 3550 3608 3352 3490 3413 3805 3631 3658 3481 3606 3480 3379 3633 3616 3494 3653 3592 3632 3594 3720 3640 3396 3659 3561 3629 3457 3482 3397 3804 3629 3670 3486 3590 3489 3447 3623 3606 3515 3650 3615 3705 3626 3729 3644 3421 3601 3550 3583 3409 3456 3421 3799 3632 3670 3426 3615 3477 3445 3628 3606 3521 3506 3613 3664 3570 3706 3657 3402 3631 3563 3621 3401 3485 3435 3797 3608 3660 3461 3620 3464 3497 3609 3627 3512 3537 3647 3648 3602 3718 3686 3424 3580 3578 3556 3505 3485 3391 3803 3558 3631 3460 3557 3490 3431 3634 3606 3534 3573 3633 3701 3563 3674 3626 3418 3601 3571 3579 3366 3469 3385 3806 3562 3679 3421 3588 3413 3470 3625 3628 3510 3535 3645 3640 3556 3654 3695 3426 3706 3527 3565 3362 3479 3393 3820 3565 3700 3437 3551 3451 3488 3634 3647 3518 3556 3665 3654 3592 3611 3703 3473 3723 3568 3638 3456 3490 3407 3848 3538 3683 3442 3596 3438 3459 3677 3632 3535 3565 3656 3664 3535 3661 3581 3393 3678 3579 3620 3376 3511 3397 3824 3563 3714 3481 3538 3463 3447 3698 3648 3515 3568 3662 3685 3531 3639 3581 3434 3716 3536 3654 3415 3504 3378 3840 3573 3696 3466 3549 3416 3489 3552 3591 3513 3534 3639 3669 3540 3657 3647 3419 3742 3570 3657 3413 3459 3362 3859 3590 3705 3431 3529 3441 3462 3697 3621 3508 3547 3666 3647 3530 3676 3633 3425 3766 3570 3673 3373 3397 3388 3836 3602 3700 3457 3514 3425 3487 3685 3596 3518 3580 3637 3676 3563 3677 3667 3479 3771 3544 3676 3341 3484 3402 3866 3608 3704 3501 3536 3450 3484 3586 3561 3532 3575 3626 3590 3566 3527 3671 3484 3773 3527 3656 3409 3501 3403 3854 3622 3705 3465 3529 3461 3456 3595 3626 3522 3621 3638 3701 3544 3567 3673 3459 3588 3516 3698 3350 3477 3389 3873 3567 3698 3457 3511 3463 3502 3639 3637 3516 3617 3619 3684 3576 3571 3679 3495 3614 3510 3517 3434 3504 3400 3849 3629 3711 3425 3527 3496 3521 3713 3616 3534 3636 3619 3627 3545 3592 3674 3466 3566 3585 3539 3339 3482 3412 3872 3612 3711 3485 3549 3537 3501 3706 3600 3523 3593 3553 3597 3575 3557 3613 3494 3559 3556 3552 3400 3481 3385 3859 3634 3726 3473 3537 3441 3499 3741 3619 3544 3606 3644 3630 3576 3556 3629 3463 3612 3528 3580 3407 3483 3385 3374 3623 3709 3488 3519 3438 3434 3559 3607 3559 3545 3572 3590 3597 3590 3663 3441 3568 3563 3567 3386 3506 3380 2780 3626 3713 3429 3567 3508 3512 3551 3634 3554 3530 3592 3531 3582 3621 3670 3470 3589 3596 3579 3400 3472 3403 2539 3623 3723 3475 3597 3471 3501 3569 3654 3586 3527 3630 3559 3604 3646 3571 3456 3526 3579 3587 3411 3471 3386 2420 3608 3747 3476 3577 3466 3522 3617 3594 3604 3530 3589 3502 3608 3640 3648 3478 3537 3591 3595 3442 3485 3414 2181 3658 3740 3514 3600 3508 3521 3614 3654 3539 3509 3537 3520 3620 3616 3587 3462 3563 3593 3614 3471 3470 3448 2058 3653 3755 3506 3574 3450 3514 3659 3627 3550 3513 3547 3523 3640 3629 3677 3480 3590 3589 3629 3482 3493 3457 1943 3650 3772 3512 3587 3458 3520 3656 3611 3570 3525 3643 3555 3631 3603 3700 3427 3616 3625 3633 3388 3498 3455 1694 3674 3773 3530 3605 3452 3540 3655 3582 3557 3550 3609 3549 3641 3622 3562 3449 3514 3585 3621 3391 3494 3429 1577 3672 3788 3484 3621 3429 3534 3659 3653 3544 3566

Tree=0
num_leaves=4
num_cat=0
split_feature=41 23 22
split_gain=96396.3 2.27374e-13 3.55271e-15
threshold=1.0000000180025095e-35 0.44520547945205485 0.10861056751467711
decision_type=2 2 2
left_child=-1 -2 -3
right_child=1 2 -4
leaf_value=1.3783971335180052 -4.9211817815204881 -4.9211817815204872 -4.9211817815204881
leaf_weight=6.1194565426558247 769.76572416722775 0.32541857101023453 23.668248262256384
leaf_count=771 96984 41 2982
internal_value=-4.87299 -4.92118 -4.92118
internal_weight=799.879 793.759 23.9937
internal_count=100778 100007 3023
is_linear=0
shrinkage=1


Tree=1
num_leaves=11
num_cat=0
split_feature=13 41 16 31 41 35 2 0 0 0
split_gain=8316.95 47633.7 364.379 3307.53 5.90151 212.684 3.55271e-15 6.93889e-18 3.46945e-18 3.46945e-18
threshold=1.0000000180025095e-35 0.47727272727272735 1.0000000180025095e-35 0.080392156862745104 0.068181818181818191 0.16500000000000004 0.2101449275362319 0.30797287219166597 0.30797287219166597 0.00012818122494639698
decision_type=2 2 2 2 2 2 2 2 2 2
left_child=2 -2 4 -4 5 -1 -6 -5 9 -3
right_child=1 8 3 7 6 -7 -8 -9 -10 -11
leaf_value=-8.5239889745011705 166.38111719586368 -8.5239889745011705 37.388601395219595 -8.5239889745011723 -8.5239889745011741 2.4075801611442493 -8.5239889745011741 -8.5239889745011634 -8.5239889745011652 -8.5239889745011688
leaf_weight=0.16357169018011575 0.0045739087800019665 0.012632700440008193 0.0043561036000018252 0.034848828800022602 3.5393341750022982 0.0045739087800029657 18.168001284531783 0.0045739087800029657 0.0052273243200033894 0.008276596840005368
leaf_count=751 21 58 20 160 16250 21 83414 21 24 38
internal_value=-8.47615 17.5257 -8.51258 -3.95557 -8.5217 -8.22663 -8.52399 -8.52399 -8.52399 -8.52399
internal_weight=21.95 0.0307105 21.9193 0.0437788 21.8755 0.168146 21.7073 0.0394227 0.0261366 0.0209093
internal_count=100778 141 100637 201 100436 772 99664 181 120 96
is_linear=0
shrinkage=1


Tree=2
num_leaves=25
num_cat=0
split_feature=18 4 31 15 0 32 32 23 36 4 0 4 0 4 27 4 4 4 40 4 4 4 40 40
split_gain=360.512 5057.56 61.5534 286.097 347.108 127.533 616.797 1530.22 34.9537 564.749 8.88178e-16 8.88178e-16 5.55112e-17 5.55112e-17 5.55112e-17 3.46945e-18 3.46945e-18 3.46945e-18 3.46945e-18 1.73472e-18 1.73472e-18 1.73472e-18 1.73472e-18 8.67362e-19
threshold=1.0000000180025095e-35 1.670333564554843e-07 0.0098039215686274526 1.0000000180025095e-35 0.001526521860725273 0.021568627450980395 0.013725490196078433 0.002935420743639922 0.025000000000000005 2.4275997575959757e-08 0.98256735340729018 1.4964159699808031e-07 3.4958515894471903e-05 2.250058879801643e-07 0.18500000000000003 2.3877436421727588e-07 8.8516809071745807e-07 1.7427992289606933e-07 0.9850000000000001 2.2355657469204732e-07 1.670333564554843e-07 2.110562475820382e-06 0.83500000000000008 0.96500000000000008
decision_type=2 2 2 2 2 2 2 2 2 2 2 2 2 2 2 2 2 2 2 2 2 2 2 2
left_child=2 -2 3 4 5 6 -1 -8 9 -7 11 -4 13 14 -10 19 17 20 22 -3 -11 -17 -16 -24
right_child=1 15 10 -5 -6 8 7 -9 12 16 -12 -13 -14 -15 18 21 -18 -19 -20 -21 -22 -23 23 -25
leaf_value=-9.4890637003199938 80.889685568669876 -9.4890637003199867 -9.489063700319992 5.9602951490917579 8.7692694853474134 20.637186056024078 47.89426916890843 -9.4890637003199778 -9.489063700319992 -9.4890637003199867 -9.4890637003199707 -9.489063700319992 -9.4890637003199725 -9.4890637003199885 -9.4890637003199867 -9.4890637003199867 -9.4890637003199725 -9.4890637003199867 -9.4890637003199885 -9.4890637003199689 -9.4890637003199689 -9.4890637003199725 -9.4890637003199831 -9.4890637003199672
leaf_weight=0.021741836375438583 0.0016596821660649344 0.0097921247797785327 4.9114144499253598 0.0032363802238251074 0.00273847557400586 0.0016596821660641572 0.0017426662743673651 0.003485332548734732 0.27393054150888929 0.010124061212991364 0.0019916185992768778 3.0376332844389253 0.0025725073573994442 0.020331106534285937 0.0085473631552304141 0.0085473631552304141 0.0024065391407930284 0.010124061212991364 0.014356250736454967 0.0020746027075801985 0.0021575868158834064 0.0025725073573994459 0.0061408240144373849 0.0019916185992769897
leaf_count=262 20 118 59185 39 33 20 21 42 3301 122 24 36605 31 245 103 103 29 122 173 25 26 31 74 24
internal_value=-9.44123 -3.40295 -9.45908 -8.84355 -8.9683 -9.09569 -5.78122 9.63871 -9.34796 -7.60027 -9.48906 -9.48906 -9.48906 -9.48906 -9.48906 -9.48906 -9.48906 -9.48906 -9.48906 -9.48906 -9.48906 -9.48906 -9.48906 -9.48906
internal_weight=8.36297 0.0246463 8.33833 0.387287 0.38405 0.381312 0.0269698 0.005228 0.354342 0.0264719 7.95104 7.94905 0.32787 0.325298 0.304967 0.0229866 0.0248122 0.0224057 0.0310361 0.0118667 0.0122816 0.0111199 0.0166798 0.00813244
internal_count=100778 297 100481 4667 4628 4595 325 63 4270 319 95814 95790 3951 3920 3675 277 299 270 374 143 148 134 201 98
is_linear=0
shrinkage=1


Tree=3
num_leaves=8
num_cat=0
split_feature=10 41 41 5 32 32 31
split_gain=40165.6 53934.6 2.84375 111.939 7.10543e-15 1.11022e-16 5.55112e-17
threshold=1.0000000180025095e-35 0.47727272727272735 0.15909090909090912 2.0917030065011482e-06 0.5627450980392158 0.0411764705882353 0.50392156862745108
decision_type=2 2 2 2 2 2 2
left_child=2 -2 3 -1 -4 -5 -7
right_child=1 -3 4 5 -6 6 -8
leaf_value=-2.090581773980225 106.97454804314701 -7.8308517643553417 -7.8308517643553435 -7.8308517643553408 -7.8308517643553435 -7.8308517643553435 -7.8308517643553435
leaf_weight=0.0087103917030607603 0.017856302991275608 0.023953577183419839 25.581984912307234 0.019598381331888959 17.918146772368345 0.14372146310051903 0.17682095157215372
leaf_count=20 41 55 58739 45 41142 330 406
internal_value=-7.78301 41.2006 -7.82971 -7.68752 -7.83085 -7.83085 -7.83085
internal_weight=43.8908 0.0418099 43.849 0.348851 43.5001 0.340141 0.320542
internal_count=100778 96 100682 801 99881 781 736
is_linear=0
shrinkage=1


Tree=4
num_leaves=27
num_cat=0
split_feature=3 2 15 4 31 23 37 4 0 0 0 15 0 0 0 0 29 0 0 0 0 2 4 0 22 31
split_gain=424.662 3908.73 154.249 326.536 31.0257 7681.83 227.074 1697.21 1.77636e-15 1.77636e-15 1.77636e-15 1.77636e-15 1.11022e-16 2.22045e-16 2.22045e-16 2.22045e-16 2.22045e-16 1.11022e-16 1.11022e-16 1.11022e-16 1.73472e-18 1.73472e-18 1.73472e-18 8.67362e-19 8.67362e-19 8.67362e-19
threshold=0.95000000000000007 0.4420289855072464 0.0017407605784681309 7.8444081719332648e-07 0.045098039215686281 0.10273972602739727 0.39500000000000007 2.2717985791233981e-07 0.96837419595413465 0.94836627202386514 0.89430875361238016 0.00020085698982324587 0.17509555327677825 0.10361704111121471 0.0018061899878810482 0.00082735154283583503 0.045000000000000005 0.00061760044746900363 0.00038454367483919087 0.00022140393399832202 0.92616761443087559 0.70289855072463781 1.510909102861973e-07 0.0043115502936515344 0.200587084148728 0.73921568627450995
decision_type=2 2 2 2 2 2 2 2 2 2 2 2 2 2 2 2 2 2 2 2 2 2 2 2 2 2
left_child=2 -2 4 -4 5 6 12 21 9 10 11 -6 13 14 15 16 17 18 19 -1 -12 22 -8 -16 -23 -10
right_child=1 -3 3 -5 8 -7 7 -9 25 -11 20 -13 -14 -15 23 -17 -18 -19 -20 -21 -22 24 -24 -25 -26 -27
leaf_value=-9.2659210966805503 63.038514667452134 -9.2659210966805485 -9.2659210966805308 14.835557491372708 -9.2659210966805503 87.139993255527287 -9.265921096680545 38.937036079425965 -9.2659210966805201 -9.2659210966805166 -9.2659210966805343 -9.2659210966805468 -9.265921096680529 -9.2659210966805396 -9.2659210966805361 -9.2659210966805343 -9.2659210966805396 -9.2659210966805343 -9.2659210966805379 -9.2659210966805432 -9.2659210966805379 -9.2659210966805308 -9.2659210966805308 -9.265921096680529 -9.2659210966805272 -9.265921096680529
leaf_weight=0.99153666380152106 0.0020745614892810895 0.018878509552450851 0.0043565791274894341 0.0020745614892803133 9.3441361319419141 0.0020745614892804234 0.0081945178826573484 0.0020745614892803124 0.0028006580105291992 0.0024894737871371522 0.004978947574273529 0.021782895637444066 0.0023857457126724704 0.0044603072019527836 0.0035267545317766427 0.0032155703083845957 0.0050826756487368776 0.0032155703083845957 0.0035267545317765317 0.0056013160210568449 0.0036304826062405482 0.0024894737871363768 0.0024894737871363768 0.0021782895637443289 0.0020745614892803133 0.0021782895637443289
leaf_count=9559 20 182 42 20 90083 20 79 20 27 24 48 210 23 43 34 31 49 31 34 54 35 24 24 21 20 21
internal_value=-9.21809 -2.10707 -9.23237 -1.49125 -9.23715 -8.9786 -9.16996 -3.49311 -9.26592 -9.26592 -9.26592 -9.26592 -9.26592 -9.26592 -9.26592 -9.26592 -9.26592 -9.26592 -9.26592 -9.26592 -9.26592 -9.26592 -9.26592 -9.26592 -9.26592 -9.26592
internal_weight=10.4535 0.0209531 10.4326 0.00643114 10.4261 1.04413 1.04205 0.0173226 9.382 9.37702 9.37453 9.36592 1.02473 1.02234 1.01788 1.01218 1.00896 1.00388 1.00066 0.997138 0.00860943 0.015248 0.010684 0.00570504 0.00456404 0.00497895
internal_count=100778 202 100576 62 100514 10066 10046 167 90448 90400 90376 90293 9879 9856 9813 9758 9727 9678 9647 9613 83 147 103 55 44 48
is_linear=0
shrinkage=1


Tree=5
num_leaves=6
num_cat=0
split_feature=41 41 0 31 31
split_gain=73660 22736.3 3.55271e-15 3.55271e-15 8.88178e-16
threshold=0.25000000000000006 0.20454545454545459 0.00031462664305024714 0.20980392156862746 0.18235294117647063
decision_type=2 2 2 2 2
left_child=1 2 3 4 -1
right_child=-2 -3 -4 -5 -6
leaf_value=-3.6092287606232416 -3.6092287606232416 -1.8782800551941199 -3.6092287606232416 -3.6092287606232416 -3.6092287606232416
leaf_weight=5.6327492371201577 2803.6648254096508 82.786970838904381 0.80880501866340537 17.360422007739544 0.80880501866340626
leaf_count=195 97060 2866 28 601 28
internal_value=-3.56 -2.27494 -3.60923 -3.60923 -3.60923
internal_weight=2911.06 107.398 24.6108 23.802 6.44155
internal_count=100778 3718 852 824 223
is_linear=0
shrinkage=1


Tree=6
num_leaves=10
num_cat=0
split_feature=6 0 35 35 35 35 31 35 34
split_gain=72293.7 3.55271e-15 1.77636e-15 4.44089e-16 1.11022e-16 1.11022e-16 6.93889e-18 6.93889e-18 3.46945e-18
threshold=1.0000000180025095e-35 0.84445790994686321 0.115 0.36500000000000005 0.27500000000000008 0.25500000000000006 0.96274509803921582 0.26500000000000007 0.37500000000000006
decision_type=2 2 2 2 2 2 2 2 2
left_child=1 2 -1 4 5 -4 -3 -7 -8
right_child=-2 6 3 -5 -6 7 8 -9 -10
leaf_value=-8.8604583630132208 232.16629172579692 -8.8604583630132101 -8.8604583630132208 -8.8604583630132208 -8.8604583630132208 -8.860458363013219 -8.8604583630132066 -8.860458363013219 -8.860458363013219
leaf_weight=12.327262539416546 0.0031116878381006732 0.008245972770965504 0.69981859478866792 2.2659310837043449 0.30883501793141477 0.017736620677169412 0.0034228566219098857 0.021003892907174304 0.024115580745274201
leaf_count=79232 20 53 4498 14564 1985 114 22 135 155
internal_value=-8.81263 -8.86046 -8.86046 -8.86046 -8.86046 -8.86046 -8.86046 -8.86046 -8.86046
internal_weight=15.6795 15.6764 15.6406 3.31333 1.04739 0.738559 0.0357844 0.0387405 0.0275384
internal_count=100778 100758 100528 21296 6732 4747 230 249 177
is_linear=0
shrinkage=1


Tree=7
num_leaves=14
num_cat=0
split_feature=16 33 41 41 0 0 0 0 0 5 5 39 0
split_gain=1263.71 3551.76 99.3604 18259.7 1.77636e-15 1.77636e-15 5.55112e-17 5.55112e-17 5.55112e-17 5.55112e-17 2.77556e-17 1.38778e-17 1.73472e-18
threshold=0.058139534883720936 0.24500000000000002 0.34090909090909099 0.25000000000000006 0.94836627202386514 0.14936608557844694 0.00075743451104689119 0.0001747925794723595 0.00012818122494639698 1.3092228672078355e-07 2.8409754520781107e-06 0.46500000000000002 0.31282045306236606
decision_type=2 2 2 2 2 2 2 2 2 2 2 2 2
left_child=2 -2 3 6 5 -4 7 8 9 -1 -7 -11 -12
right_child=1 -3 4 -5 -6 10 -8 -9 -10 11 12 -13 -14
leaf_value=-9.3712811370920264 -9.3712811370920086 70.966183124580056 -9.3712811370920264 143.65246031371586 -9.3712811370920122 -9.3712811370920246 -9.3712811370919997 -9.3712811370920015 -9.3712811370920104 -9.3712811370920246 -9.371281137092021 -9.3712811370920139 -9.3712811370920122
leaf_weight=0.26597180492535599 0.0052279470255606189 0.0018671239376999438 8.9396027013135555 0.0019604801345849401 0.0067216461757205739 0.092702703506802986 0.0018671239376999429 0.0019604801345849401 0.0031741106940899036 0.069923791466862895 0.0095223320822697133 0.0040143164660548783 0.0037342478753998884
leaf_count=2849 56 20 95758 21 72 993 20 21 34 749 102 43 40
internal_value=-9.32345 11.7702 -9.33937 -8.51137 -9.37128 -9.37128 -9.37128 -9.37128 -9.37128 -9.37128 -9.37128 -9.37128 -9.37128
internal_weight=9.40825 0.00709507 9.40116 0.348872 9.05228 9.04556 0.346912 0.345045 0.343084 0.33991 0.105959 0.0739381 0.0132566
internal_count=100778 76 100702 3737 96965 96893 3716 3696 3675 3641 1135 792 142
is_linear=0
shrinkage=1


Tree=8
num_leaves=14
num_cat=0
split_feature=16 41 5 11 41 41 0 0 0 0 0 0 0
split_gain=960.983 9049.45 432.664 1861.55 3.561 652.105 8.88178e-16 2.77556e-17 3.46945e-18 1.73472e-18 1.73472e-18 1.73472e-18 8.67362e-19
threshold=1.0000000180025095e-35 0.47727272727272735 0.00011106484927366388 1.0000000180025095e-35 0.38636363636363641 0.25000000000000006 0.73158851496224486 0.0001747925794723595 0.91167148317330116 0.31628134613591879 0.20942481588514963 0.0022606506945091831 0.0010137969609396852
decision_type=2 2 2 2 2 2 2 2 2 2 2 2 2
left_child=2 -2 4 -4 5 7 -6 -1 -8 10 11 -3 -5
right_child=1 9 3 12 6 -7 8 -9 -10 -11 -12 -13 -14
leaf_value=-9.6225946147346288 115.57616470471278 -9.6225946147346235 47.760170073348078 -9.62259461473462 -9.6225946147346288 23.167556635593606 -9.6225946147346253 -9.6225946147346058 -9.6225946147346235 -9.6225946147345951 -9.6225946147346093 -9.6225946147346004 -9.6225946147346093
leaf_weight=0.26677581196418021 0.0015974599518812074 0.009294312447309494 0.0017426835838704191 0.0050828271196223795 7.0021752518077847 0.001524848135886713 0.0099478187912608318 0.0021057426638435564 0.0093669242633040994 0.0014522363198921093 0.0025414135598111906 0.0016700717678759256 0.0023961899278219789
leaf_count=3674 22 128 24 70 96433 21 137 29 129 20 35 23 33
internal_value=-9.57477 2.45799 -9.60205 1.22139 -9.61574 -9.43769 -9.62259 -9.62259 -9.62259 -9.62259 -9.62259 -9.62259 -9.62259
internal_weight=7.31767 0.0165555 7.30112 0.0092217 7.2919 0.270406 7.02149 0.268882 0.0193147 0.014958 0.0135058 0.0109644 0.00747902
internal_count=100778 228 100550 127 100423 3724 96699 3703 266 206 186 151 103
is_linear=0
shrinkage=1


Tree=9
num_leaves=8
num_cat=0
split_feature=41 41 2 23 33 39 39
split_gain=81771.8 14624.6 7.27596e-12 3.63798e-12 4.54747e-13 2.27374e-13 2.84217e-14
threshold=0.43181818181818193 0.38636363636363641 0.4855072463768117 0.27690802348336602 0.045000000000000005 0.31500000000000006 0.93500000000000016
decision_type=2 2 2 2 2 2 2
left_child=1 5 -3 -2 -5 -1 -7
right_child=3 2 -4 4 -6 6 -8
leaf_value=-1.1879339943182969 -1.1879339943182969 -0.97071977954881428 -0.97071977954881428 -1.1879339943182969 -1.1879339943182969 -1.1879339943182969 -1.1879339943182969
leaf_weight=755.4754419028759 13286.653864130378 2848.3403772413731 4744.6251701712608 8.0565632134675962 1447.1889406591654 64.452505707740784 43.045066311955452
leaf_count=3282 57721 12374 20612 35 6287 280 187
internal_value=-1.11684 -0.992888 -0.97072 -1.18793 -1.18793 -1.18793 -1.18793
internal_weight=23197.8 8455.94 7592.97 14741.9 1455.25 862.973 107.498
internal_count=100778 36735 32986 64043 6322 3749 467
is_linear=0
shrinkage=1


Tree=10
num_leaves=31
num_cat=0
split_feature=3 36 36 30 35 41 41 36 41 41 31 4 35 31 32 36 32 1 41 32 32 32 32 32 36 31 31 32 36 32
split_gain=15693 10267.4 29960.9 16853 378.472 10106.6 4601.28 128.376 690.602 985.028 79.2254 70.8584 354.61 59.5804 40.7619 39.24 28.8542 7.68221 2636.19 5.19485 9.62911 4.50036 3.20142 5.79691 2.55538 13.0783 2.10572 2.04098 1.6654 12.0246
threshold=0.95000000000000007 0.24500000000000002 0.27500000000000008 0.91500000000000015 0.81500000000000006 0.47727272727272735 0.43181818181818193 0.33500000000000008 0.47727272727272735 0.43181818181818193 0.013725490196078433 6.1595814744972524e-09 0.99500000000000011 0.11176470588235295 0.87647058823529422 0.25500000000000006 0.14705882352941177 0.75000000000000011 0.47727272727272735 0.29607843137254908 0.70000000000000007 0.13921568627450984 0.76274509803921575 0.8176470588235295 0.40500000000000008 0.0058823529411764714 0.0058823529411764714 0.5627450980392158 0.25500000000000006 0.29215686274509806
decision_type=2 2 2 2 2 2 2 2 2 2 2 2 2 2 2 2 2 2 2 2 2 2 2 2 2 2 2 2 2 2
left_child=1 4 3 11 17 6 -6 8 9 -4 16 12 -3 -2 15 19 -5 -1 -19 21 27 -12 28 -24 25 -9 -25 -21 29 -18
right_child=13 2 7 10 5 -7 -8 24 -10 -11 14 -13 -14 -15 -16 -17 22 18 -20 20 -22 -23 23 26 -26 -27 -28 -29 -30 -31
leaf_value=-4.4955404289361631 -1.1894113798256178 -4.4957983535315913 -4.4957983535315904 -0.95324088170376875 -4.4957983535315904 -4.4957983535315904 -0.36281463639911937 -4.1021808566618319 -4.4957983535315904 -0.3628146363991327 -0.56946382225576953 -4.4957983535315904 -2.429306494965362 -0.36281463639911937 -1.2812554624285646 -1.2238529108017264 -0.73854042886572424 -0.3628146363991176 -4.4957983535315904 -0.51588810740402913 -0.76278080257323788 -0.85877268245502592 -0.65802775905144584 -0.52177554859653297 -4.4957983535315904 -4.4957983535315904 -0.3628146363991247 -0.36281463639913003 -0.36281463639911848 -0.38400942469210619
leaf_weight=969.27552420645952 0.24195594713091795 0.94362819381057927 0.3145427312701935 0.25405374448746432 0.96782378852367346 76.784719821996987 2.2138969162479043 0.25405374448746343 2.8066889867186546 0.26615154184401035 0.24195594713091928 2.9397647576406598 0.26615154184401035 2.2017991188913584 0.32664052862673987 0.29034713655710209 0.26615154184401069 0.38712951540946861 114.42096739821136 0.65328105725347974 0.37503171805292368 0.30244493391364813 0.33873832598328568 0.31454273127019405 34.515015858225524 1.2460731277242301 0.61698766518384218 0.32664052862673998 2.4800484580919147 2.3590704845264554
leaf_count=80120 20 78 26 21 80 6347 183 21 232 22 20 243 22 182 27 24 22 32 9458 54 31 25 28 26 2853 103 51 27 205 195
internal_value=-4.44741 -4.45544 -3.77281 -1.72042 -4.48635 -4.38138 -1.62 -4.46534 -4.17106 -2.60151 -0.521355 -4.36325 -4.04117 -0.444656 -0.760217 -0.682493 -0.430692 -4.49409 -4.48186 -0.599737 -0.547323 -0.730191 -0.409869 -0.4809 -4.49302 -4.42914 -0.41649 -0.464864 -0.392196 -0.419953
internal_weight=1219.19 1216.75 52.698 13.2955 1164.05 79.9664 3.18172 39.4025 3.38738 0.580694 9.14593 4.14954 1.20978 2.44376 2.51634 2.1897 6.62959 1084.08 114.808 1.89935 1.35495 0.544401 6.37554 1.27027 36.0151 1.50013 0.93153 0.979922 5.10527 2.62522
internal_count=100778 100576 4356 1099 96220 6610 263 3257 280 48 756 343 100 202 208 181 548 89610 9490 157 112 45 527 105 2977 124 77 81 422 217
is_linear=0
shrinkage=1


Tree=11
num_leaves=19
num_cat=0
split_feature=4 41 41 41 41 2 0 22 0 28 0 0 5 31 0 10 5 23
split_gain=68610.4 10455.2 4473.93 8883.92 3972.86 1.45519e-11 7.27596e-12 7.27596e-12 9.09495e-13 9.09495e-13 4.54747e-13 4.54747e-13 4.54747e-13 4.54747e-13 2.27374e-13 2.27374e-13 5.68434e-14 5.68434e-14
threshold=2.0652714355667256e-08 0.52272727272727282 0.47727272727272735 0.65909090909090928 0.47727272727272735 0.63043478260869579 0.0001048755476834157 0.58414872798434458 0.38084972499300834 0.055000000000000007 0.2322876852801343 0.00061760044746900363 3.4352786603121047e-09 0.26470588235294124 0.0018061899878810482 1.0000000180025095e-35 1.7378693044890016e-06 0.020547945205479454
decision_type=2 2 2 2 2 2 2 2 2 2 2 2 2 2 2 2 2 2
left_child=2 4 6 11 14 -6 7 -1 -7 -5 12 13 -3 -4 15 -2 -14 -9
right_child=1 10 3 9 5 8 -8 17 -10 -11 -12 -13 16 -15 -16 -17 -18 -19
leaf_value=-0.72826233369384219 -0.72826233369384219 -0.72826233369384219 -0.53601342171903343 -0.72826233369384219 -0.53601342171903343 -0.53601342171903343 -0.72826233369384219 -0.72826233369384219 -0.53601342171903343 -0.72826233369384219 -0.72826233369384219 -0.53601342171903343 -0.72826233369384219 -0.53601342171903343 -0.72826233369384219 -0.72826233369384219 -0.72826233369384219 -0.72826233369384219
leaf_weight=9509.2868703603745 258.2589465379715 707.4162483215332 651.75923466682434 532.12266325950623 10513.713911175728 2514.1885560750961 7.5423055887222281 11.703577637672423 12.483816146850584 1013.0096644163132 5.4616695642471305 5.7217490673065177 7.0221465826034537 325.87961733341217 5.4616695642471305 10.663259625434874 60.598524212837219 57.997729182243347
leaf_count=36563 993 2720 2506 2046 40425 9667 29 45 48 3895 21 22 27 1253 21 41 233 223
internal_value=-0.6254 -0.550401 -0.712658 -0.653494 -0.539975 -0.536013 -0.728262 -0.728262 -0.536013 -0.728262 -0.728262 -0.536013 -0.728262 -0.536013 -0.728262 -0.728262 -0.728262 -0.728262
internal_weight=26210.3 14095.3 12115 2528.49 13314.8 13040.4 9586.53 9578.99 2526.67 1545.13 780.499 983.361 775.037 977.639 274.384 268.922 67.6207 69.7013
internal_count=100778 54196 46582 9722 51195 50140 36860 36831 9715 5941 3001 3781 2980 3759 1055 1034 260 268
is_linear=0
shrinkage=1


Tree=12
num_leaves=10
num_cat=0
split_feature=13 4 2 4 4 4 4 5 4
split_gain=1365.44 2567.27 2.22045e-16 2.22045e-16 2.22045e-16 5.55112e-17 5.55112e-17 5.55112e-17 8.67362e-19
threshold=1.0000000180025095e-35 2.1413603831928683e-07 0.23913043478260873 0.0015903456018553437 0.00018167214532211008 1.6119987047081337e-06 1.0416939258340943e-06 1.2607472683345426e-06 0.00095876566880132735
decision_type=2 2 2 2 2 2 2 2 2
left_child=2 -2 5 4 -4 6 7 -1 -6
right_child=1 -3 3 -5 8 -7 -8 -9 -10
leaf_value=-10.875355214105406 87.49021727654889 -10.875355214105381 -10.875355214105406 -10.875355214105358 -10.875355214105381 -10.875355214105371 -10.875355214105394 -10.875355214105371 -10.875355214105392
leaf_weight=0.38948835271003268 0.0010166158463106303 0.0019087481196038425 1.6849266553181217 0.0010996048949892803 0.0022199570521480574 0.0013693193031940601 0.0038382435013772911 0.001390066565363667 0.0036100236175116152
leaf_count=18773 49 92 81212 53 107 66 185 67 174
internal_value=-10.8275 23.3084 -10.8754 -10.8754 -10.8754 -10.8754 -10.8754 -10.8754 -10.8754
internal_weight=2.09087 0.00292536 2.08794 1.69186 1.69076 0.396086 0.394717 0.390878 0.00582998
internal_count=100778 141 100637 81546 81493 19091 19025 18840 281
is_linear=0
shrinkage=1


Tree=13
num_leaves=4
num_cat=0
split_feature=13 31 0
split_gain=2048.18 6712.52 4.33681e-19
threshold=1.0000000180025095e-35 0.95490196078431377 0.0070732730493148141
decision_type=2 2 2
left_child=-1 2 -2
right_child=1 -3 -4
leaf_value=-10.469890579767076 -10.469890579767059 135.58953614460535 -10.469890579767034
leaf_weight=3.1318822146458847 0.0022406820498871429 0.0010269792728649918 0.0011203410249436274
leaf_count=100637 72 33 36
internal_value=-10.4221 23.7142 -10.4699
internal_weight=3.13627 0.004388 0.00336102
internal_count=100778 141 108
is_linear=0
shrinkage=1


Tree=14
num_leaves=14
num_cat=0
split_feature=7 1 22 22 2 4 22 22 22 32 32 22 22
split_gain=17545.3 78851 1.45519e-11 1.45519e-11 2.84217e-14 8.88178e-16 2.22045e-16 2.22045e-16 1.11022e-16 1.11022e-16 5.55112e-17 1.38778e-17 1.38778e-17
threshold=1.0000000180025095e-35 0.75000000000000011 0.01467710371819961 0.002935420743639922 0.094202898550724654 3.2903034923476202e-06 0.32387475538160476 0.1868884540117417 0.085127201565557739 0.31568627450980397 0.28431372549019612 0.27690802348336602 0.22407045009784737
decision_type=2 2 2 2 2 2 2 2 2 2 2 2 2
left_child=4 2 3 -2 5 -1 7 8 -3 10 -10 12 -9
right_child=1 6 -4 -5 -6 -7 -8 11 9 -11 -12 -13 -14
leaf_value=-6.5059815107797441 24.04709373472452 -6.5059815107797441 24.047093734723973 24.047093734724164 -6.5059815107797441 -6.5059815107797441 -6.5059815107797432 -6.5059815107797432 -6.5059815107797441 -6.5059815107797441 -6.5059815107797432 -6.5059815107797432 -6.5059815107797432
leaf_weight=4.5625522760674349 0.081824825610964269 0.43530807225033619 0.065459860488772392 0.11128176283091307 158.86944490973838 0.08018832909874607 0.044185405829921476 0.057277377927675843 0.30602484778501093 0.17674162331968546 0.065459860488772392 0.034366426756605506 0.032729930244386196
leaf_count=2788 50 266 40 68 97079 49 27 35 187 108 40 21 20
internal_value=-6.45808 -0.905766 24.0471 24.0471 -6.50598 -6.50598 -6.50598 -6.50598 -6.50598 -6.50598 -6.50598 -6.50598 -6.50598
internal_weight=164.923 1.41066 0.258566 0.193107 163.512 4.64274 1.15209 1.10791 0.983534 0.548226 0.371485 0.124374 0.0900073
internal_count=100778 862 158 118 99916 2837 704 677 601 335 227 76 55
is_linear=0
shrinkage=1


Tree=15
num_leaves=8
num_cat=0
split_feature=41 41 39 39 0 0 0
split_gain=24202.4 72193.9 1.45519e-11 9.09495e-13 4.54747e-13 2.84217e-14 4.44089e-16
threshold=0.65909090909090928 0.7045454545454547 0.17500000000000002 0.13500000000000004 0.30201827165097422 0.00026801528852428462 0.44179407103570439
decision_type=2 2 2 2 2 2 2
left_child=4 2 3 -2 -1 -3 -6
right_child=1 5 -4 -5 6 -7 -8
leaf_value=-3.8040782059520355 -1.7110785600932026 -3.8040782059520355 -1.7110785600932026 -1.7110785600932044 -3.8040782059520355 -3.8040782059520355 -3.8040782059520355
leaf_weight=2194.4341574721038 3.6789303198456755 151.02725637704134 51.672248583287001 0.97945547476410855 2.6755856871604915 2.3650266341865054 0.66889642179012287
leaf_count=91859 154 6322 2163 41 112 99 28
internal_value=-3.75511 -3.24191 -1.71108 -1.71108 -3.80408 -3.80408 -3.80408
internal_weight=2407.5 209.723 56.3306 4.65839 2197.78 153.392 3.34448
internal_count=100778 8779 2358 195 91999 6421 140
is_linear=0
shrinkage=1


Tree=16
num_leaves=31
num_cat=0
split_feature=15 33 4 10 31 16 33 41 2 31 36 2 2 12 22 22 22 22 22 22 2 23 2 22 23 23 23 23 23 23
split_gain=541.617 2326.27 497.19 120.765 413.86 57.1557 477.682 14.0729 501.748 322.885 1710.73 1.77636e-15 8.88178e-16 8.88178e-16 8.88178e-16 8.88178e-16 8.88178e-16 8.88178e-16 8.88178e-16 8.88178e-16 1.11022e-16 1.11022e-16 5.55112e-17 5.55112e-17 5.55112e-17 5.55112e-17 5.55112e-17 5.55112e-17 1.38778e-17 1.38778e-17
threshold=0.00020085698982324587 0.025000000000000005 2.1920863482769631e-07 1.0000000180025095e-35 0.54313725490196085 1.0000000180025095e-35 0.055000000000000007 0.7045454545454547 0.86231884057971031 0.0098039215686274526 0.095000000000000015 0.9057971014492755 0.81884057971014512 1.0000000180025095e-35 0.81898238747553831 0.59784735812133072 0.57632093933463813 0.57436399217221135 0.57240704500978479 0.49412915851272016 0.2101449275362319 0.5998043052837575 0.99275362318840588 0.55870841487279843 0.58023483365949124 0.45107632093933464 0.37671232876712329 0.16731898238747556 0.0068493150684931512 0.0088062622309197664
decision_type=2 2 2 2 2 2 2 2 2 2 2 2 2 2 2 2 2 2 2 2 2 2 2 2 2 2 2 2 2 2
left_child=3 -2 -3 5 -5 7 -7 11 9 10 -9 12 13 14 15 16 17 18 19 -1 -11 24 -13 -21 25 26 27 -22 -15 -25
right_child=1 2 -4 4 -6 6 -8 8 -10 20 -12 22 -14 28 -16 -17 -18 -19 -20 23 21 -23 -24 29 -26 -27 -28 -29 -30 -31
leaf_value=-9.3712811370920264 37.886050781537485 17.407873616798696 -9.3712811370920228 -9.3712811370920122 17.407873616798682 17.407873616787569 -9.3712811370920228 41.636632679823713 16.132675771375979 -9.3712811370920139 -9.371281137092021 -9.3712811370920246 -9.3712811370920246 -9.3712811370920228 -9.3712811370920157 -9.3712811370920228 -9.3712811370920246 -9.3712811370920157 -9.3712811370920157 -9.3712811370920264 -9.3712811370920264 -9.3712811370920246 -9.3712811370920246 -9.3712811370920193 -9.3712811370920015 -9.3712811370920228 -9.3712811370920193 -9.3712811370920246 -9.3712811370920246 -9.3712811370920246
leaf_weight=7.4910879504459231 0.0031741106940906807 0.0018671239376999429 0.024179254993214272 0.006348221388180586 0.0018671239376999438 0.0018671239377007201 0.015403772486024536 0.001960480134585719 0.0019604801345849401 0.0040143164660548783 0.010175825460464694 0.24926104568294327 0.26055714550602793 0.034635149044334734 0.0089621949009605073 0.031554394547129827 0.063575570078683863 0.0090555510978455045 0.0086821263103055157 0.43718707001244173 0.38481424355995841 0.13480634830193594 0.050318990121013485 0.0073751395539147771 0.0019604801345849401 0.012789798973244615 0.0084954139165347442 0.037622547344653867 0.035755423406953923 0.066936393166542985
leaf_count=80242 34 20 259 68 20 20 165 21 21 43 109 2670 2791 371 96 338 681 97 93 4683 4122 1444 539 79 21 137 91 403 383 717
internal_value=-9.32345 -2.52677 -7.45163 -9.34463 -3.28511 -9.34994 -6.47624 -9.35524 -9.1207 -9.20368 -1.13154 -9.37128 -9.37128 -9.37128 -9.37128 -9.37128 -9.37128 -9.37128 -9.37128 -9.37128 -9.37128 -9.37128 -9.37128 -9.37128 -9.37128 -9.37128 -9.37128 -9.37128 -9.37128 -9.37128
internal_weight=9.40825 0.0292205 0.0260464 9.37903 0.00821535 9.37081 0.0172709 9.35354 0.5986 0.596639 0.0121363 8.75494 8.45536 8.19481 8.12442 8.11545 8.0839 8.02032 8.01127 8.00259 0.584503 0.580489 0.29958 0.511499 0.445682 0.443722 0.430932 0.422437 0.0703906 0.0743115
internal_count=100778 313 279 100465 88 100377 185 100192 6412 6391 130 93780 90571 87780 87026 86930 86592 85911 85814 85721 6261 6218 3209 5479 4774 4753 4616 4525 754 796
is_linear=0
shrinkage=1


Tree=17
num_leaves=7
num_cat=0
split_feature=41 41 0 0 0 0
split_gain=41958.9 54437.5 1.45519e-11 4.54747e-13 1.42109e-14 4.44089e-16
threshold=0.75000000000000011 0.79545454545454553 0.0001048755476834157 0.93933532208445991 0.00026801528852428462 0.055665610142630752
decision_type=2 2 2 2 2 2
left_child=3 2 -2 -1 -3 -6
right_child=1 4 -4 -5 5 -7
leaf_value=-3.5991755613056906 -1.8850585623460301 -3.5991755613056906 -1.8850585623460301 -3.5991755613056906 -3.5991755613056906 -3.5991755613056906
leaf_weight=2750.1622994095087 83.774910628795624 99.905664660036564 0.67089935392141242 2.450241118669509 0.72923842817544882 1.9543589875102041
leaf_count=94282 2872 3425 23 84 25 67
internal_value=-3.54993 -2.82526 -1.88506 -3.59918 -3.59918 -3.59918
internal_weight=2939.65 187.035 84.4458 2752.61 102.589 2.6836
internal_count=100778 6412 2895 94366 3517 92
is_linear=0
shrinkage=1


Tree=18
num_leaves=14
num_cat=0
split_feature=23 41 1 4 22 23 22 23 22 0 4 0 23
split_gain=58059.5 10748 21885.1 5703.76 7.27596e-12 7.27596e-12 3.63798e-12 1.81899e-12 4.54747e-13 2.27374e-13 2.27374e-13 3.55271e-15 4.44089e-16
threshold=0.64090019569471635 0.79545454545454553 1.0000000180025095e-35 3.7428515665621538e-07 0.60763209393346396 0.9129158512720158 0.5273972602739726 0.74461839530332685 0.57436399217221135 0.98256735340729018 2.4384696072568535e-07 0.11798499114384266 0.77201565557729956
decision_type=2 2 2 2 2 2 2 2 2 2 2 2 2
left_child=1 9 4 12 6 7 -3 -5 -8 10 -1 -4 -2
right_child=3 2 11 5 -6 -7 8 -9 -10 -11 -12 -13 -14
leaf_value=-3.9141345385381263 -3.9141345385381263 -1.5831742489814888 -3.9141345385381263 -1.5831742489814937 -1.5831742489814955 -1.5831742489814893 -1.5831742489814933 -1.5831742489814902 -1.5831742489814924 -3.9141345385381263 -3.9141345385381263 -3.9141345385381263 -3.9141345385381263
leaf_weight=1811.6782621499151 1.1368705276399844 12.655728515237564 29.515732944011692 1.9734356328845049 0.70786278136074621 23.552525270730257 1.0725193656980998 4.6547340471297503 0.68641239404678334 0.51480929553508659 271.21869719773531 0.6220612321048965 1.7374813724309204
leaf_count=84459 53 590 1376 92 33 1098 50 217 32 24 12644 29 81
internal_value=-3.86528 -3.89757 -3.13531 -1.78587 -1.58317 -1.58317 -1.58317 -1.58317 -1.58317 -3.91413 -3.91413 -3.91413 -3.91413
internal_weight=2161.73 2128.67 45.2603 33.055 15.1225 30.1807 14.4147 6.62817 1.75893 2083.41 2082.9 30.1378 2.87435
internal_count=100778 99237 2110 1541 705 1407 672 309 82 97127 97103 1405 134
is_linear=0
shrinkage=1


Tree=19
num_leaves=22
num_cat=0
split_feature=16 32 9 2 2 4 5 9 2 2 2 2 2 2 4 4 5 27 4 25 28
split_gain=421.839 570.992 3.33067e-16 2.22045e-16 1.11022e-16 2.22045e-16 2.22045e-16 2.22045e-16 1.11022e-16 1.11022e-16 1.11022e-16 1.11022e-16 1.11022e-16 1.11022e-16 1.11022e-16 2.77556e-17 2.77556e-17 1.73472e-18 8.67362e-19 8.67362e-19 8.67362e-19
threshold=1.0000000180025095e-35 0.18235294117647063 0.08441558441558443 0.97826086956521752 0.96376811594202916 3.9576760286932961e-05 3.1308366314826683e-05 0.058441558441558454 0.94927536231884069 0.92028985507246397 0.74637681159420299 0.60144927536231896 0.58695652173913049 0.57246376811594213 2.3515108099698331e-07 6.9240942339789692e-07 1.0117277352248071e-05 0.46500000000000002 2.3732505092915881e-07 0.97500000000000009 0.085000000000000006
decision_type=2 2 2 2 2 2 2 2 2 2 2 2 2 2 2 2 2 2 2 2 2
left_child=2 -2 3 4 5 6 7 8 9 10 11 12 13 14 -1 -13 -12 20 -8 -6 -5
right_child=1 -3 -4 17 19 -7 18 -9 -10 -11 16 15 -14 -15 -16 -17 -18 -19 -20 -21 -22
leaf_value=-11.568501920841411 -11.568501920841372 38.120832628357611 -11.568501920841404 -11.568501920841404 -11.568501920841369 -11.568501920841401 -11.568501920841392 -11.568501920841381 -11.568501920841404 -11.568501920841403 -11.568501920841411 -11.568501920841411 -11.568501920841403 -11.568501920841397 -11.568501920841411 -11.568501920841387 -11.568501920841365 -11.56850192084139 -11.568501920841371 -11.568501920841401 -11.568501920841381
leaf_weight=0.56526475790633235 0.0013589591353594379 0.0010062521841973648 0.0067221795397928155 0.0068674118138006834 0.0012137268613515708 0.0049586447839830008 0.0025934334644263082 0.0017635347558099248 0.0065043311287810148 0.0050935033241330521 0.099297380485950271 0.22313901527923008 0.0052594830658563288 0.0030291302864497984 0.09910027954265388 0.0018880195621022713 0.001006252184197364 0.0022096053116911216 0.0011411107243475271 0.0044503318249553558 0.0015768075463711284
leaf_count=54490 131 97 648 662 117 478 250 170 627 491 9572 21510 507 292 9553 182 97 213 110 429 152
internal_value=-11.5207 9.57126 -11.5685 -11.5685 -11.5685 -11.5685 -11.5685 -11.5685 -11.5685 -11.5685 -11.5685 -11.5685 -11.5685 -11.5685 -11.5685 -11.5685 -11.5685 -11.5685 -11.5685 -11.5685 -11.5685
internal_weight=1.04544 0.00236521 1.04308 1.03636 1.0257 1.02004 1.01508 1.01135 1.00958 1.00308 0.997984 0.897681 0.672654 0.667394 0.664365 0.225027 0.100304 0.0106538 0.00373454 0.00566406 0.00844422
internal_count=100778 228 100550 99902 98875 98329 97851 97491 97321 96694 96203 86534 64842 64335 64043 21692 9669 1027 360 546 814
is_linear=0
shrinkage=1


Tree=20
num_leaves=10
num_cat=0
split_feature=7 7 33 22 22 0 2 4 31
split_gain=95706.9 21.1143 128.732 1.45519e-11 3.63798e-12 1.13687e-13 1.13687e-13 2.84217e-14 2.22045e-16
threshold=0.66666666666666674 1.0000000180025095e-35 0.03500000000000001 0.059686888454011745 0.047945205479452059 0.97548242751934378 0.26811594202898553 2.6689104200674565e-06 0.40196078431372556
decision_type=2 2 2 2 2 2 2 2 2
left_child=1 5 -3 4 -2 6 7 -1 -4
right_child=3 2 8 -5 -6 -7 -8 -9 -10
leaf_value=-5.012059535779855 1.8824344809094757 -3.5132564886734787 -5.012059535779855 1.8824344809094731 1.8824344809094509 -5.012059535779855 -5.012059535779855 -5.012059535779855 -5.012059535779855
leaf_weight=149.89497191598639 0.97904210211709031 0.16679976554587383 0.78323368169367291 3.8146381163969636 0.27558222133666277 0.26107789389789005 574.06677569914609 0.38436467712744971 0.2320692390203476
leaf_count=20669 135 23 108 526 38 36 79158 53 32
internal_value=-4.9639 -5.01172 -4.80057 1.88243 1.88243 -5.01206 -5.01206 -5.01206 -5.01206
internal_weight=730.859 725.789 1.1821 5.06926 1.25462 724.607 724.346 150.279 1.0153
internal_count=100778 100079 163 699 173 99916 99880 20722 140
is_linear=0
shrinkage=1


Tree=21
num_leaves=9
num_cat=0
split_feature=41 4 36 39 23 7 22 22
split_gain=94732.5 359.148 465.544 6.19741 2.27374e-13 1.42109e-14 4.44089e-16 5.55112e-17
threshold=0.93181818181818199 2.4167299079350985e-07 0.095000000000000015 0.055000000000000007 0.065557729941291595 0.66666666666666674 0.2886497064579257 0.34148727984344424
decision_type=2 2 2 2 2 2 2 2
left_child=4 2 -2 -3 -1 -6 -7 -8
right_child=1 3 -4 -5 5 6 7 -9
leaf_value=-5.0350413545652604 -1.8608747765837821 2.0186621520602452 2.0186621520602062 1.6980392653954128 -5.0350413545652604 -5.0350413545652604 -5.0350413545652595 -5.0350413545652595
leaf_weight=628.39330248534679 0.14176949858665366 4.4940931051969528 0.1701233983039856 0.15594644844532002 77.604623526334763 3.0976635441184039 0.15594644844532002 0.1488579735159874
leaf_count=88650 20 634 24 22 10948 437 22 21
internal_value=-4.98689 1.89774 0.255236 2.00791 -5.03504 -5.03504 -5.03504 -5.03504
internal_weight=714.362 4.96193 0.311893 4.65004 709.4 81.0071 3.40247 0.304804
internal_count=100778 700 44 656 100078 11428 480 43
is_linear=0
shrinkage=1


Tree=22
num_leaves=13
num_cat=0
split_feature=5 35 41 33 4 0 0 0 2 0 0 0
split_gain=4774.19 27752.7 103.921 1514.13 224.321 3.55271e-15 1.77636e-15 1.38778e-17 6.93889e-18 3.46945e-18 1.73472e-18 1.73472e-18
threshold=0.00011106484927366388 0.32500000000000007 0.93181818181818199 0.045000000000000005 2.4167299079350985e-07 0.61701780553742902 0.40265218607252734 0.00012818122494639698 0.65942028985507262 0.60107672228954978 0.13094294770206025 0.001526521860725273
decision_type=2 2 2 2 2 2 2 2 2 2 2 2
left_child=2 10 5 -4 -5 6 -1 -6 -7 -8 11 -2
right_child=1 -3 3 4 7 8 9 -9 -10 -11 -12 -13
leaf_value=-9.0836004905597942 -9.0836004905597854 171.68107676619894 31.086327788707415 2.731084297465614 -9.0836004905597942 -9.0836004905597765 -9.0836004905597907 -9.0836004905597889 -9.0836004905597925 -9.08360049055978 -9.0836004905597747 -9.0836004905597747
leaf_weight=12.370572044819703 0.0094598126015633666 0.0024894243688322595 0.0024894243688330367 0.0042320214270148418 0.068832583798211999 0.004605435082340458 0.021035635916633377 0.010455582349095494 0.041573386959498748 0.0032362516794819376 0.0024894243688322612 0.0024894243688322612
leaf_count=99385 76 20 20 34 553 37 169 84 334 26 20 20
internal_value=-9.03577 17.4994 -9.07163 -7.33961 -8.48494 -9.0836 -9.0836 -9.0836 -9.0836 -9.0836 -9.0836 -9.0836
internal_weight=12.544 0.0169281 12.527 0.0860096 0.0835202 12.441 12.3948 0.0792882 0.0461788 0.0242719 0.0144387 0.0119492
internal_count=100778 136 100642 691 671 99951 99580 637 371 195 116 96
is_linear=0
shrinkage=1


Tree=23
num_leaves=31
num_cat=0
split_feature=41 35 41 5 26 35 41 41 41 41 41 33 41 41 41 41 35 41 41 33 36 23 31 36 23 23 31 36 31 23
split_gain=521.397 27.1449 4.48078e-05 3.20424e-05 2.92594e-05 1.05424e-05 6.89042e-06 3.82928e-06 1.83812e-05 2.02745e-06 1.49445e-06 1.29656e-06 7.53838e-07 3.81398e-07 3.50258e-07 3.27578e-07 2.02163e-07 1.69266e-07 1.65663e-07 1.38602e-07 1.37677e-07 2.63691e-07 2.28767e-07 7.63522e-08 2.68554e-08 2.96945e-08 2.60427e-08 1.35138e-08 1.09251e-08 8.65609e-09
threshold=1.0000000180025095e-35 0.16500000000000004 0.84090909090909105 6.3415244069361459e-06 0.32500000000000007 0.50500000000000012 0.43181818181818193 0.47727272727272735 0.43181818181818193 0.65909090909090928 0.65909090909090928 1.0000000180025095e-35 0.47727272727272735 0.79545454545454553 0.38636363636363641 0.79545454545454553 0.75500000000000012 0.75000000000000011 0.75000000000000011 0.015000000000000001 0.24500000000000002 0.0048923679060665368 0.013725490196078433 0.25500000000000006 0.028375733855185912 0.075342465753424667 0.013725490196078433 0.26500000000000007 0.0098039215686274526 0.024461839530332683
decision_type=2 2 2 2 2 2 2 2 2 2 2 2 2 2 2 2 2 2 2 2 2 2 2 2 2 2 2 2 2 2
left_child=1 3 5 4 -1 6 14 8 26 -9 12 -4 -8 18 -2 17 -10 -11 -12 -13 -18 -22 27 24 -24 -26 -7 28 -23 -30
right_child=2 -3 11 -5 -6 7 10 9 16 15 13 19 -14 -15 -16 -17 20 -19 -20 -21 21 22 23 -25 25 -27 -28 -29 29 -31
leaf_value=0.058809481735957847 -0.048162271121736135 0.19288346842518356 -0.048189165771991976 0.058809481735959637 0.059016499187076105 -0.048162249438088028 -0.048071933342941735 -0.04816991094511025 -0.048124402841396116 -0.048152022616401835 -0.048152021448978587 -0.048002235280365166 -0.048170031343309223 -0.048144006378247693 -0.048179949485023438 -0.048144007331367943 -0.048044561357866236 -0.048162692717411852 -0.04816269380346018 -0.047870367574533265 -0.048122726245452774 -0.048047720706985472 -0.048090123564819114 -0.048118029336493562 -0.048061459015950964 -0.048082975036149639 -0.048150323398324785 -0.048061964067550908 -0.048065087608316737 -0.048052285439813582
leaf_weight=3.1757172942161551 2.8334230760875121 3.8989661186933509 0.033138281083661236 112.42039221525192 3.6901699006557465 17.449149997208089 0.19594315718859334 30.967019941631275 0.11252636648714442 11.794066698500268 4.7583835336912488 0.020243413280696232 365.91141094227362 4.4508761931210747 251.39806419005617 9.9990584580227715 1.6374320518225429 5.4271691717329409 15.418059946985807 1.2731664094151283 0.17015982046723399 1.5587507039308555 0.20967707177624129 0.11348236072808504 0.42093934351578355 0.25904166884720325 0.47008700063452025 0.27142286486923684 0.1645135967992245 0.66884105233475566
leaf_count=20 456 20 9 708 23 2450 38 4361 18 1683 684 16 49723 649 32983 1463 363 751 2144 1380 28 325 37 18 83 47 75 54 32 137
internal_value=-0.032073 0.0630593 -0.0481707 0.0588159 0.0589207 -0.0481712 -0.0481733 -0.0481543 -0.0481372 -0.0481612 -0.0481692 -0.0478803 -0.04817 -0.0481573 -0.0481798 -0.0481512 -0.0480581 -0.0481554 -0.0481602 -0.0478724 -0.0480567 -0.0480619 -0.0480591 -0.0480794 -0.0480745 -0.0480697 -0.0481619 -0.0480514 -0.0480502 -0.0480548
internal_weight=851.171 123.185 727.986 119.286 6.86589 726.659 644.966 81.6933 23.506 58.1873 390.735 1.32655 366.107 24.6273 254.231 27.2203 5.58679 17.2212 20.1764 1.29341 5.47426 3.83683 3.66667 1.00314 0.889658 0.679981 17.9192 2.66353 2.39211 0.833355
internal_count=100778 771 100007 751 43 98602 86677 11925 3667 8258 53238 1405 49761 3477 33439 3897 1142 2434 2828 1396 1124 761 733 185 167 130 2525 548 494 169
is_linear=0
shrinkage=0.05


Tree=24
num_leaves=31
num_cat=0
split_feature=13 35 12 12 32 41 41 16 30 35 35 32 41 35 41 41 41 41 32 41 41 41 1 41 35 41 41 36 23 32
split_gain=3147.82 17327.9 188.521 334.633 895.952 17.5395 62.6118 1.79667 3.64851 0.00479491 0.144528 8.71353e-05 8.92811e-10 2.08622e-10 1.36303e-10 7.5659e-11 3.6495e-10 3.98903e-11 3.10544e-11 2.95355e-11 1.49356e-11 7.53853e-12 7.12042e-12 6.90381e-12 4.02603e-12 3.27183e-12 2.82907e-12 2.74103e-12 5.24197e-12 1.07413e-12
threshold=1.0000000180025095e-35 0.055000000000000007 0.00073539243214333476 0.00033426928733787945 0.052941176470588241 1.0000000180025095e-35 0.068181818181818191 1.0000000180025095e-35 0.28500000000000009 0.19500000000000003 0.16500000000000004 0.33921568627450988 0.84090909090909105 0.50500000000000012 0.43181818181818193 0.47727272727272735 0.43181818181818193 0.65909090909090928 0.0058823529411764714 0.65909090909090928 0.47727272727272735 0.79545454545454553 0.75000000000000011 0.38636363636363641 0.75500000000000012 0.75000000000000011 0.79545454545454553 0.24500000000000002 0.0048923679060665368 0.28431372549019612
decision_type=2 2 2 2 2 2 2 2 2 2 2 2 2 2 2 2 2 2 2 2 2 2 2 2 2 2 2 2 2 2
left_child=2 -2 3 5 -5 9 -7 12 11 10 -1 -9 13 14 23 16 -15 -17 -14 20 -16 25 26 -8 -18 -21 -19 -26 -29 -30
right_child=1 -3 -4 4 -6 6 7 8 -10 -11 -12 -13 18 15 19 17 24 22 -20 21 -22 -23 -24 -25 27 -27 -28 28 29 -31
leaf_value=-0.047828036260415943 -0.047835393276604077 -204.84633852251264 -9.5032631929339573 30.685400722053174 -0.047835393335244149 1.4077108985596642 -0.047835185293180565 -0.06975313929030133 -0.28893584259249611 -0.1562092609433009 -0.15668613287041708 -0.070822544488910635 -0.047835499843562973 -0.047835176215230299 -0.047832754024998168 -0.047835388867216402 -0.047834167572750143 -0.047834910937253151 -0.047827292866063478 -0.047834909327540968 -0.04783539273753537 -0.047834694058986577 -0.047835197475846102 -0.047835659139681699 -0.047832015314232618 -0.047835195702069323 -0.047834692663247157 -0.047834120928530011 -0.047832654802896446 -0.047832298615710027
leaf_weight=0.031955862232289856 0.0067109747320745067 0.0012207120470515281 0.0052879680376943785 0.0032538063881365495 0.0087446015240857378 0.073750123381617239 0.077730532792792739 0.24042361467272921 0.22923865914916586 3.7754048705101013 0.66511791944503784 0.9169546365737915 0.0011919073640445218 0.49156567034079479 0.0053655846277241839 0.8490517643089649 0.0030846235604258245 0.32368384467853872 0.034992605208025038 0.130511788924914 10.003989259234299 0.12205777953204233 0.14868812328495551 6.8991760565986624 0.044813574466388673 0.42297399369005184 0.27420733851613477 0.0046643397072330109 0.030330635840073228 0.070048949710326269
leaf_count=751 95 46 38 20 43 3 437 110 25 17 3 46 14 2510 38 4340 18 1686 1388 680 49359 649 748 32983 363 2144 1463 28 214 519
internal_value=-0.0731605 -31.567 -0.0635114 -0.0615828 8.2866 -0.0654545 -0.046633 -0.0516628 -0.106696 -0.155506 -0.151696 -0.0706004 -0.0478354 -0.0478354 -0.0478355 -0.047835 -0.0478345 -0.0478352 -0.0478276 -0.0478354 -0.0478354 -0.047835 -0.0478349 -0.0478357 -0.0478324 -0.0478351 -0.0478348 -0.0478323 -0.0478325 -0.0478324
internal_weight=25.8962 0.00793169 25.8883 25.883 0.0119984 25.871 21.3985 21.3247 1.38662 4.47248 0.697074 1.15738 19.9381 19.9019 17.6618 2.24014 0.644508 1.59563 0.0361845 10.6849 10.0094 0.675544 0.746579 6.97691 0.152942 0.553486 0.597891 0.149857 0.105044 0.10038
internal_count=100778 141 100637 100599 63 100536 99765 99762 181 771 754 156 99581 98179 86290 11889 3652 8237 1402 52870 49397 3473 3897 33420 1142 2824 3149 1124 761 733
is_linear=0
shrinkage=0.05


Tree=25
num_leaves=31
num_cat=0
split_feature=35 2 15 32 2 37 24 15 0 41 32 3 40 9 2 32 0 5 14 23 32 32 15 34 5 5 5 4 35 34
split_gain=8151.02 35145.3 41588.4 52827.9 8655.33 6512.21 10664.8 5558.75 4740.33 2957.33 2059.89 1545.27 14378.8 2529.78 1491.63 5730 715.829 557.207 555.368 383.901 1080.36 20584.5 309.309 402.805 116.718 882.466 2780.43 12038.1 36431 663.362
threshold=0.99500000000000011 0.86231884057971031 1.0000000180025095e-35 0.0098039215686274526 0.065217391304347838 0.49500000000000005 0.99500000000000011 1.0000000180025095e-35 1.0000000180025095e-35 0.93181818181818199 0.076470588235294137 0.35000000000000009 0.24500000000000002 0.019480519480519484 0.19565217391304351 0.84117647058823541 0.11761210030763496 1.8758529973448711e-05 1.0000000180025095e-35 0.002935420743639922 0.021568627450980395 0.0098039215686274526 0.00087038028923406543 0.99500000000000011 1.8439812453297532e-06 2.0600221033004921e-06 2.0226157356659825e-06 1.670333564554843e-07 1.0000000180025095e-35 0.7350000000000001
decision_type=2 2 2 2 2 2 2 2 2 2 2 2 2 2 2 2 2 2 2 2 2 2 2 2 2 2 2 2 2 2
left_child=18 4 3 8 -2 7 -7 9 -3 11 -11 12 -6 14 15 -13 -12 19 22 20 21 -16 24 -24 -1 26 -26 28 -28 -27
right_child=1 2 -4 -5 5 6 -8 -9 -10 10 16 13 -14 -15 17 -17 -18 -19 -20 -21 -22 -23 23 -25 25 29 27 -29 -30 -31
leaf_value=-0.096659719167939029 -116.49605495511976 -0.047829348650141934 -18.041381873470343 -399.3540594085099 -135.23054141452405 -179.301143731347 -0.047829318617547557 -17.432521304434342 -126.50333408173454 -99.940302232269261 -0.047826507583439461 -0.047829613586426047 -2.1505922131791642 61.039123593958415 -0.047829544181388878 -92.235435048969677 -34.8851525873146 -29.380312480465349 -28.105056132616689 -0.047829415216588872 -0.047829580360386884 -158.24350556572233 -0.047829632499993308 -18.21103761166054 -0.7111965136931957 -0.1087691700298976 -290.4402279423025 -0.047829632720869833 -0.04782963257841237 -33.419536541979994
leaf_weight=6.1434316451318614 0.0017170927385445891 0.0013949384592706346 0.0082925897731911391 0.0020032362663187087 0.0022192186827147955 0.0013946743521824337 0.0020486180967509426 0.065787754744633276 0.0015810821132618003 0.0010010764001491248 0.002245606629003305 0.0075569010004983284 0.023770696883730125 0.0016370107650818247 0.029157923720514012 0.0021694890421244395 0.0042944509477820247 0.0017045948770828536 0.0017820720804192494 0.40032980393215822 0.070389042107508348 0.0022123495582491151 0.0068958430115808704 0.0054767541587402609 0.075373063140432683 0.82048482688145341 0.0015496273408643893 0.016193605712032877 0.0035641433205455542 0.0014973145903113263
leaf_count=79663 23 21 13 32 35 26 64 25 22 126 263 98 314 25 392 32 23 29 63 5650 929 38 109 3 1170 11284 29 209 46 22
internal_value=-0.682362 -6.11867 -86.6262 -200.849 -4.39429 -4.08278 -72.6528 -3.69854 -67.2303 -2.05184 -33.1473 -1.61851 -13.514 -1.01838 -1.2162 -20.6104 -22.9233 -0.841774 -0.196132 -0.744885 -3.48716 -11.2044 -0.189102 -8.08781 -0.175264 -0.700918 -5.21951 -21.1673 -88.0455 -0.169448
internal_weight=7.70916 0.632908 0.0132718 0.00497926 0.619636 0.617919 0.00344329 0.614476 0.00297602 0.548688 0.00754113 0.541147 0.0259899 0.515157 0.51352 0.00972639 0.00654006 0.503794 7.07625 0.502089 0.101759 0.0313703 7.07447 0.0123726 7.06209 0.918663 0.0966804 0.0213074 0.00511377 0.821982
internal_count=100778 8180 88 75 8092 8069 90 7979 43 7954 412 7542 349 7193 7168 130 286 7038 92598 7009 1359 430 92535 112 92423 12760 1454 284 75 11306
is_linear=0
shrinkage=0.05


Tree=26
num_leaves=31
num_cat=0
split_feature=41 2 5 41 1 41 41 41 30 41 41 33 41 41 31 33 36 31 36 31 31 41 31 36 30 36 36 41 31 34
split_gain=3.51926 5.34906 1.56919e-05 7.144e-09 1.51744e-09 1.30544e-09 1.68736e-09 3.3989e-10 1.77891e-09 3.13502e-10 2.1149e-10 2.07908e-10 6.61418e-11 5.56444e-11 4.91624e-11 2.23143e-11 1.82526e-11 1.39903e-11 3.9577e-12 3.76699e-12 2.45171e-12 2.32632e-12 1.65293e-12 1.1795e-12 1.12217e-11 1.43706e-11 8.48877e-13 7.05214e-13 6.95423e-13 6.7496e-13
threshold=0.20454545454545459 0.86231884057971031 2.0600221033004921e-06 0.84090909090909105 1.0000000180025095e-35 0.43181818181818193 0.47727272727272735 0.43181818181818193 0.91500000000000015 0.65909090909090928 0.79545454545454553 1.0000000180025095e-35 0.75000000000000011 0.38636363636363641 0.013725490196078433 0.015000000000000001 0.25500000000000006 0.11176470588235295 0.26500000000000007 0.013725490196078433 0.017647058823529415 0.47727272727272735 0.0098039215686274526 0.24500000000000002 0.91500000000000015 0.29500000000000004 0.25500000000000006 0.65909090909090928 0.03333333333333334 0.12500000000000003
decision_type=2 2 2 2 2 2 2 2 2 2 2 2 2 2 2 2 2 2 2 2 2 2 2 2 2 2 2 2 2 2
left_child=1 2 -1 4 7 13 17 19 10 23 20 -5 -11 -6 18 -13 -16 -7 22 -2 21 -9 26 -8 -25 -26 -10 29 -4 -22
right_child=3 -3 28 11 5 6 9 8 14 12 -12 15 -14 -15 16 -17 -18 -19 -20 -21 27 -23 -24 24 25 -27 -28 -29 -30 -31
leaf_value=-0.048832252205220555 -0.047844285834739 0.40310325469763425 -0.047828653915765434 -0.047845733018189736 -0.04784428790447047 -0.047839820666092554 -0.047844702550360663 -0.047843368608143061 -0.047838256193574409 -0.047843734158051258 -0.047843303267391536 -0.047835654521284743 -0.047844306869218312 -0.047845238066652626 -0.047839685857684777 -0.047828499248045338 -0.047842287765650547 -0.047837944527234576 -0.047839073056094979 -0.047843699112857477 -0.047844698517903433 -0.04784463526428865 -0.047838475911985895 -0.0478446820172264 -0.047841740975220412 -0.047844695686596689 -0.047837944527233958 -0.047844219245790999 -0.047829978359242985 -0.047845153664155982
leaf_weight=0.099790769537199675 0.95271772085107098 0.10932127386331558 0.001006917689664987 0.0018187900641338786 0.1558264180785337 0.011179756955246201 21.102661238255852 0.0068520325003193737 0.046209550549974554 0.90588919112881638 0.79237969114910811 0.0011069802567363193 1.1367268637378529 13.796706942317542 0.051119016483426094 0.0694402973973995 0.0077640822273679069 0.08935614227084443 0.015827107155928388 0.028166090225568041 0.40324203510046513 0.0076964397580355538 0.047174334235023707 0.23677189654172437 0.0076235875603742889 0.0089418973657302558 0.041440529748797417 0.0075246643045951958 0.063148821660433896 0.008313952770609645
leaf_count=22 2399 60 26 9 424 38 52228 19 175 2362 2112 16 2874 32986 174 1380 22 362 57 74 1054 112 175 620 24 25 160 21 744 24
internal_value=-0.0466213 0.132201 -0.04844 -0.0478447 -0.0478448 -0.0478448 -0.0478446 -0.0478436 -0.0478431 -0.0478446 -0.0478438 -0.047829 -0.0478441 -0.0478452 -0.0478388 -0.0478286 -0.04784 -0.0478382 -0.0478383 -0.0478443 -0.0478447 -0.047844 -0.0478382 -0.0478447 -0.0478446 -0.0478433 -0.0478381 -0.0478447 -0.04783 -0.0478447
internal_weight=40.2137 0.273268 0.163947 39.9405 39.8681 37.4517 23.4992 2.41643 1.43554 23.3986 1.22601 0.0723661 2.04262 13.9525 0.209535 0.0705473 0.0588831 0.100536 0.150652 0.980884 0.433629 0.0145485 0.134824 21.356 0.253337 0.0165655 0.0876501 0.419081 0.0641557 0.411556
internal_count=100778 852 792 99926 98521 91943 58533 6578 4105 58133 3342 1405 5236 33410 763 1396 196 400 567 2473 1230 131 510 52897 669 49 335 1099 770 1078
is_linear=0
shrinkage=0.05


Tree=27
num_leaves=31
num_cat=0
split_feature=12 34 37 2 31 2 31 31 41 36 37 4 12 36 36 4 4 4 35 4 5 5 5 35 4 5 31 5 5 34
split_gain=32895.1 3066.09 108431 362263 2300.29 1119.73 11568.2 542.329 4389.55 8311.55 2242.49 11906.1 397.242 285.749 361.217 561.141 1270.62 1626.69 1167.97 644.123 1242.14 535.871 237.373 461.228 1172.47 133.426 841.978 133.183 395.931 24.3302
threshold=0.0045460623077951609 0.94500000000000006 0.49500000000000005 0.5434782608695653 0.81372549019607854 1.0000000180025095e-35 0.025490196078431376 0.03333333333333334 0.79545454545454553 0.13500000000000004 0.49500000000000005 1.6413472987925033e-07 0.00073539243214333476 0.045000000000000005 0.025000000000000005 1.5398953686243132e-07 1.2790189767632531e-07 1.3804709069314432e-07 0.24500000000000002 1.503662536421388e-07 7.0652231113752286e-07 2.4230547181696969e-05 2.4543157539785375e-07 0.49500000000000005 2.1558535160740382e-07 0.00011106484927366388 0.1431372549019608 1.1533375555554508e-05 1.3683859996909883e-05 0.84500000000000008
decision_type=2 2 2 2 2 2 2 2 2 2 2 2 2 2 2 2 2 2 2 2 2 2 2 2 2 2 2 2 2 2
left_child=1 5 -3 -4 -5 6 -1 8 10 -10 13 -12 25 14 21 16 -16 -18 19 20 -19 -7 23 24 -17 29 -27 -24 -29 -9
right_child=-2 2 3 4 -6 7 -8 12 9 -11 11 -13 -14 -15 15 22 17 18 -20 -21 -22 -23 27 -25 -26 26 -28 28 -30 -31
leaf_value=-158.89223407327643 -206.19811049664537 -0.04783041079862424 -1074.9972590719708 -81.743635482973005 -0.0478291117204672 -0.04783049391452588 -0.047830517278342838 -0.053687730886360752 -161.32897045321096 -0.047826613799914722 -0.047830571730027784 -143.45412467410043 19.80844619409617 -0.151552637905913 -0.047830514466484918 -0.047830517278330702 -53.45434973439059 -49.215755948919757 -0.047830517797436758 -51.674152220500531 -0.04783051727833286 -27.219558906833118 -0.047830517571782395 -0.047830517917873357 -49.215755948919735 48.704870754431539 -0.047830517312281509 -27.219570832008589 -0.047830517679654516 -1.2818030529200646
leaf_weight=0.0012590937768174335 0.0019403306642499221 0.17200378786704937 0.0010233037904803042 0.0012240530415596126 0.0029101133723032054 0.13036787488908505 0.012784176331479102 8.5365117902465784 0.0012400705702013673 0.0022450503241984165 0.0085255809468367527 0.001743298656947446 0.0025180954481872622 0.48205633566974482 0.018967362258990747 0.0030023444414837251 0.0028086458769394076 0.0020338462345534927 0.0089101891571772285 0.0019369964138604701 0.0034865935449488461 0.0018401479392196043 0.063049255884834565 0.0069749829009886806 0.0020338462345534936 0.0010255841698388881 0.0064889382556430064 0.0018401471315883091 0.0049393432782380842 0.040519531250539198
leaf_count=20 55 1844 34 21 46 1454 132 89388 137 204 117 23 36 5407 196 31 32 23 94 22 36 27 651 84 23 15 84 20 51 471
internal_value=-0.346942 -0.305014 -6.82132 -232.72 -24.2365 -0.181533 -14.2895 -0.16031 -1.45157 -57.4346 -1.18951 -24.3932 -0.0478305 -0.864993 -2.22871 -4.21507 -9.22367 -18.2996 -12.2671 -26.8667 -18.1623 -0.426022 -1.88068 -8.37341 -19.9041 -0.053655 6.60595 -0.763868 -7.42302 -0.0594896
internal_weight=9.52821 9.52627 0.177161 0.00515747 0.00413417 9.34911 0.0140433 9.33507 0.748002 0.00348512 0.744517 0.0102689 8.58706 0.734248 0.252192 0.119984 0.0381436 0.0191763 0.0163676 0.00745744 0.00552044 0.132208 0.0818399 0.0120112 0.00503619 8.58455 0.00751452 0.0698287 0.00677949 8.57703
internal_count=100778 100723 1945 101 67 98778 152 98626 8632 341 8291 140 89994 8151 2744 1263 403 207 175 81 59 1481 860 138 54 89958 99 722 71 89859
is_linear=0
shrinkage=0.05


Tree=28
num_leaves=31
num_cat=0
split_feature=41 41 4 32 31 32 32 31 32 41 41 41 41 32 41 41 31 23 31 2 32 36 32 5 4 32 32 32 36 32
split_gain=18279.5 245.295 0.581391 5.76418 0.792726 0.144339 0.0264767 0.0143882 0.0173752 0.00239868 0.000609924 0.00148144 0.000253024 8.13715e-05 4.4028e-05 2.27886e-05 9.45872e-06 2.70741e-05 1.1586e-05 1.13049e-05 6.35948e-06 6.26563e-06 4.00839e-06 2.43054e-06 8.32041e-06 1.05137e-06 1.02462e-06 1.57583e-06 6.85764e-07 1.85862e-06
threshold=0.34090909090909099 0.20454545454545459 1.2681491271023755e-08 0.025490196078431376 0.013725490196078433 0.70000000000000007 0.23333333333333336 0.0098039215686274526 0.50784313725490204 0.84090909090909105 0.43181818181818193 0.47727272727272735 0.65909090909090928 0.0058823529411764714 0.79545454545454553 0.75000000000000011 0.11176470588235295 0.002935420743639922 0.013725490196078433 0.2101449275362319 0.87647058823529422 0.25500000000000006 0.14705882352941177 3.2784009348245184e-06 1.1051013821892129e-07 0.70000000000000007 0.29607843137254908 0.13921568627450984 0.25500000000000006 0.29215686274509806
decision_type=2 2 2 2 2 2 2 2 2 2 2 2 2 2 2 2 2 2 2 2 2 2 2 2 2 2 2 2 2 2
left_child=1 23 -3 -4 7 6 -6 -5 -9 10 -2 16 -13 -11 15 -14 17 19 22 -12 21 25 -19 24 -1 26 27 -20 29 -24
right_child=9 2 3 4 5 -7 -8 8 -10 13 11 12 14 -15 -16 -17 -18 18 20 -21 -22 -23 28 -25 -26 -27 -28 -29 -30 -31
leaf_value=-0.0491019601738188 -0.049167046667734915 0.32679877923601591 0.43120526987432745 0.32679873546730359 0.33544708430096287 0.35294135773553964 0.34258918790916426 0.32679873546730359 0.33251801495325856 -0.049144057315000704 -0.049127500556925392 -0.049128676913030127 -0.049059219606514368 -0.047991067978163458 -0.04902833738243538 -0.049100385899954579 -0.048647569344576029 -0.048775451387062213 -0.04869422000005167 -0.04881050451115862 -0.048944076061964374 -0.048928461894363715 -0.048779356098998056 -0.048091505797016244 -0.048078974273239553 -0.048787453202088049 -0.048684469477293185 -0.04881892270498342 -0.048647569344576015 -0.048667629434241855
leaf_weight=0.026459381014318661 914.88731011934806 318.81491090357304 1.4366916865110386 39.835542216897011 2.5556469634175283 2.9381578043103218 2.6361265406012535 2.7427750378847113 2.5744262859225273 0.15811572468372581 0.52313196286559349 1445.0178998625267 60.329556935937504 4.7527493629827529 52.690813317894936 75.928793962952781 5.9877457469701758 0.89647628366947074 0.56655684858560629 0.60830008983612061 0.49003532342612732 0.43745129741728295 0.40062978863715937 4.2890112170716748 0.079896199196809903 0.56545942276716221 1.4292573630809782 0.45824049040675163 3.5752916634082794 5.2519295047968626
leaf_count=55 32993 2459 19 306 20 24 21 21 20 16 20 54084 2367 1389 2112 2895 362 46 31 30 21 19 20 762 35 28 79 22 206 296
internal_value=-0.00147272 0.323246 0.327616 0.332377 0.329713 0.344085 0.339073 0.327125 0.329568 -0.0491322 -0.0491343 -0.0491162 -0.0491216 -0.0480282 -0.0490672 -0.0490822 -0.0487008 -0.0487218 -0.0487028 -0.0489571 -0.0487755 -0.0487516 -0.0486745 -0.0480974 -0.0483335 -0.048726 -0.0487118 -0.04875 -0.0486647 -0.0486755
internal_weight=2952.89 377.93 373.534 54.7194 53.2827 8.12993 5.19177 45.1527 5.3172 2574.96 2570.04 1655.16 1633.97 4.91087 188.949 136.258 21.1905 15.2028 14.0713 1.13143 3.947 3.45697 10.1243 4.39537 0.106356 3.01951 2.45405 1.0248 9.22785 5.65256
internal_count=100778 3742 2890 431 412 65 41 347 41 97036 95631 62638 61458 1405 7374 5262 1180 818 768 50 200 179 568 852 90 160 132 53 522 316
is_linear=0
shrinkage=0.05


Tree=29
num_leaves=31
num_cat=0
split_feature=31 25 41 41 41 41 41 41 33 41 41 2 41 30 2 4 31 23 31 2 32 32 32 32 32 32 32 4 31 32
split_gain=76.0807 9430.18 3.15184e-10 2.57346e-10 7.28324e-11 1.65201e-10 3.34905e-11 1.05036e-11 9.19445e-12 5.74174e-12 3.05178e-12 2.87592e-12 1.93009e-11 8.88698e-12 1.64573e-12 3.13985e-12 1.53479e-12 2.88981e-12 1.39434e-12 1.03337e-12 8.64201e-13 5.82e-13 3.73545e-13 6.00542e-13 3.20431e-13 2.35005e-13 1.14971e-13 8.18512e-14 9.73076e-14 5.90899e-14
threshold=0.0058823529411764714 0.94500000000000006 0.84090909090909105 0.11363636363636365 0.43181818181818193 0.47727272727272735 0.65909090909090928 0.38636363636363641 0.015000000000000001 0.79545454545454553 0.7045454545454547 0.34057971014492755 0.43181818181818193 0.91500000000000015 0.282608695652174 3.771837832324494e-07 0.11176470588235295 0.002935420743639922 0.013725490196078433 0.70289855072463781 0.87647058823529422 0.15882352941176472 0.29607843137254908 0.13921568627450984 0.14705882352941177 0.70000000000000007 0.77058823529411768 1.2681491271023755e-08 0.013725490196078433 0.13921568627450984
decision_type=2 2 2 2 2 2 2 2 2 2 2 2 2 2 2 2 2 2 2 2 2 2 2 2 2 2 2 2 2 2
left_child=1 11 3 -2 7 16 -7 27 -4 10 -8 12 -1 14 -14 -16 17 19 24 -6 22 -15 23 -20 -19 -24 -23 -5 -29 -30
right_child=2 -3 8 4 5 6 9 -9 -10 -11 -12 -13 13 21 15 -17 -18 18 20 -21 -22 26 25 -25 -26 -27 -28 28 29 -31
leaf_value=-0.047832585759692306 -0.047827469651710135 -95.127906997052548 -0.047831738962785954 -0.047832585698909226 -0.047832606633566581 -0.047832734247100696 -0.047832388043774848 -0.047832927766392357 -0.047826948535986152 -0.047832237449431422 -0.047832593501311402 -0.047832719488208705 -0.047832682563728267 -0.047831296706292679 -0.047829192134131601 -0.047832657673909207 -0.047830321447402471 -0.047830931442823112 -0.04783055683378773 -0.047831221849758632 -0.047831815439682207 -0.047830329656625988 -0.047830505755205088 -0.04783145664249297 -0.04783041110429978 -0.047831026724636697 -0.04783066554054536 -0.047832571131748214 -0.047832585773006787 -0.047832293413240169
leaf_weight=0.1854612625746091 0.022995903133062323 0.0026293626920050875 0.001045153734595068 0.19738940586103026 0.0024615896472813805 7.6621195077606279 0.32416358935006412 4.9282784881361295 0.024065877787506965 0.2830618567095371 0.40849565315378283 0.104624552320285 0.0080323906590078643 0.002034863297058819 0.0010960787460504847 0.001619003590612067 0.031918403510644566 0.003245342173613607 0.0030229811745812185 0.0029758703094557859 0.002628031885251402 0.012516148315626197 0.0076245790478424169 0.0047965480334823951 0.033492381386167835 0.0030228725809138268 0.0031988876944524227 0.013870281698473264 0.0022721088025718927 0.0072220408183056861
leaf_count=1314 788 43 25 1402 18 53184 2357 32983 1321 2111 2901 772 95 23 57 25 362 31 31 27 21 135 79 41 355 28 32 99 50 68
internal_value=-0.0653258 -0.826133 -0.0478327 -0.0478328 -0.0478328 -0.0478327 -0.0478327 -0.0478329 -0.0478271 -0.0478324 -0.0478325 -0.0478325 -0.0478324 -0.0478312 -0.0478323 -0.0478313 -0.0478306 -0.0478307 -0.0478306 -0.0478318 -0.047831 -0.0478305 -0.0478308 -0.0478311 -0.0478305 -0.0478307 -0.0478304 -0.0478326 -0.0478325 -0.0478324
internal_weight=14.2914 0.321213 13.9702 13.9451 13.9221 8.77303 8.67784 5.14903 0.025111 1.01572 0.732659 0.318583 0.213959 0.0284974 0.0107475 0.00271508 0.0951886 0.0632702 0.0578327 0.00543746 0.021095 0.0177499 0.018467 0.00781953 0.0367377 0.0106475 0.015715 0.220754 0.0233644 0.00949415
internal_count=100778 2496 98282 96936 96148 61546 60553 34602 1346 7369 5258 2453 1681 367 177 82 993 631 586 45 200 190 179 72 386 107 167 1619 217 118
is_linear=0
shrinkage=0.05


Tree=30
num_leaves=31
num_cat=0
split_feature=16 33 13 4 16 41 41 35 41 41 41 41 41 32 41 41 41 41 35 41 41 36 23 32 32 36 32 23 32 23
split_gain=63528.3 54462.4 2790.04 5813.91 498.683 7.00275e-11 5.54952e-11 1.66347e-11 1.04627e-11 6.10323e-12 2.86204e-11 3.13649e-12 2.3741e-12 1.20756e-12 1.18439e-12 5.96856e-13 5.52003e-13 5.12645e-13 3.1565e-13 2.69507e-13 2.62124e-13 2.19061e-13 4.12753e-13 8.57023e-14 1.5981e-13 3.01287e-14 3.86531e-14 2.07273e-14 2.72625e-14 2.35012e-14
threshold=0.19767441860465118 0.10500000000000002 1.0000000180025095e-35 2.3949902086133434e-07 0.034883720930232565 0.84090909090909105 0.11363636363636365 0.50500000000000012 0.43181818181818193 0.47727272727272735 0.43181818181818193 0.65909090909090928 0.65909090909090928 0.025490196078431376 0.47727272727272735 0.79545454545454553 0.29545454545454547 0.79545454545454553 0.75500000000000012 0.75000000000000011 0.7045454545454547 0.24500000000000002 0.0048923679060665368 0.28431372549019612 0.76274509803921575 0.25500000000000006 0.14705882352941177 0.04403131115459883 0.89215686274509809 0.089041095890410968
decision_type=2 2 2 2 2 2 2 2 2 2 2 2 2 2 2 2 2 2 2 2 2 2 2 2 2 2 2 2 2 2
left_child=2 -2 4 -4 5 6 -1 8 16 10 -9 -11 14 -7 -10 20 -8 19 -12 -13 -14 -20 -23 25 -25 -24 -27 28 -26 -29
right_child=1 -3 3 -5 -6 13 7 9 12 11 18 17 15 -15 -16 -17 -18 -19 21 -21 -22 22 23 24 27 26 -28 29 -30 -31
leaf_value=-0.047826916853689096 -0.047830076408356584 -491.72229069045272 143.35716740249731 -0.047830075814973907 -24.987838427831012 -0.047828393573432638 -0.047829983706617896 -0.047829977973316617 -0.04782894092168731 -0.047830072942813363 -0.047829546416079671 -0.047829867449305688 -0.047829866469576668 -0.047826604062306523 -0.047830075853178042 -0.047829774501511407 -0.047830188389444646 -0.047829775299973488 -0.047828624567715333 -0.047829991611580691 -0.047829990275096428 -0.047829528549750387 -0.047829018495808499 -0.047828675112308899 -0.047828895025229412 -0.047829027244603237 -0.047828791566186947 -0.047828815791925348 -0.047829214196079176 -0.047829041960909584
leaf_weight=0.013814629463451022 0.0010459882712683885 0.0012203196384253428 0.0010459886520261799 0.0021793718505024595 0.002004810876381379 0.0010082691414935322 0.033316883491350757 0.21069485901899343 0.0022997325577306374 0.36400924896425968 0.0013221167027950278 0.13865174268966657 0.055939837387996183 0.014499741177004047 4.2959445226837278 0.052316154251457192 2.9571447760979357 0.11753018401941517 0.01920728747791145 0.063816097233292457 0.18129533205922893 0.0019992060224467414 0.0038365568252629609 0.02159448706152034 0.0014091077318880707 0.0023344799119513482 0.0068289012051536702 0.0041591862172936089 0.0012738753175653983 0.0015867216352489777
leaf_count=783 21 31 63 71 51 76 435 2506 38 4350 18 1683 677 1328 49524 649 32987 1463 363 751 2149 28 60 382 23 37 117 70 19 25
internal_value=-0.106137 -264.796 -0.0361656 46.4586 -0.0536645 -0.0478301 -0.0478301 -0.0478301 -0.0478301 -0.0478299 -0.0478297 -0.04783 -0.0478301 -0.0478267 -0.0478301 -0.0478299 -0.0478302 -0.0478299 -0.0478288 -0.0478299 -0.04783 -0.0478288 -0.0478288 -0.0478288 -0.0478287 -0.0478289 -0.0478289 -0.0478289 -0.047829 -0.0478289
internal_weight=8.57533 0.00226631 8.57306 0.00322536 8.56984 8.56783 8.55233 8.53851 7.57826 0.960254 0.276247 0.684007 4.5878 0.015508 4.29824 0.289551 2.99046 0.319998 0.0655519 0.202468 0.237235 0.0642298 0.0450225 0.0430233 0.0300234 0.0129999 0.00916338 0.00842889 0.00268298 0.00574591
internal_count=100778 52 100726 134 100592 100541 99137 98354 86459 11895 3648 8247 53037 1404 49562 3475 33422 3897 1142 2434 2826 1124 761 733 519 214 154 137 42 95
is_linear=0
shrinkage=0.05


Tree=31
num_leaves=31
num_cat=0
split_feature=5 38 4 16 31 4 41 41 41 41 41 41 41 33 41 31 30 2 31 32 32 32 32 32 32 32 31 32 31 32
split_gain=10549.8 19317.4 14991.7 8558.72 26829.6 2860.6 3.28955e-11 2.61409e-11 6.40998e-12 2.02425e-11 3.55715e-12 1.70797e-12 6.0929e-13 4.34073e-13 2.98983e-13 1.31818e-13 2.84113e-13 2.24323e-13 1.73278e-13 8.14834e-14 5.79779e-14 5.27182e-14 3.61967e-14 2.42315e-14 8.45851e-15 1.48041e-14 5.57714e-15 5.28527e-15 5.15907e-15 1.12367e-14
threshold=0.00011106484927366388 1.0000000180025095e-35 5.902328365856484e-07 1.0000000180025095e-35 0.31568627450980397 1.8007717604853733e-07 0.84090909090909105 0.11363636363636365 0.43181818181818193 0.47727272727272735 0.65909090909090928 0.38636363636363641 0.79545454545454553 0.055000000000000007 0.75000000000000011 0.11176470588235295 0.91500000000000015 0.2101449275362319 0.013725490196078433 0.87647058823529422 0.14705882352941177 0.29607843137254908 0.15490196078431376 0.70000000000000007 0.76274509803921575 0.8176470588235295 0.0058823529411764714 0.5627450980392158 0.0098039215686274526 0.29215686274509806
decision_type=2 2 2 2 2 2 2 2 2 2 2 2 2 2 2 2 2 2 2 2 2 2 2 2 2 2 2 2 2 2
left_child=3 2 5 6 -5 -2 7 -1 11 15 -11 -9 14 -8 -12 16 17 -10 20 21 -18 22 -20 27 28 -26 -27 -23 -22 -30
right_child=1 -3 -4 4 -6 -7 13 8 9 10 12 -13 -14 -15 -16 -17 18 -19 19 -21 24 23 -24 -25 25 26 -28 -29 29 -31
leaf_value=-0.047826730775239856 98.285146926182151 -242.22820300227565 -184.42214668096091 -294.99510776146303 -0.047829190370452093 -0.047829190405066203 -0.047827567387493483 -0.047829118102537788 -0.047829186292091028 -0.047829190294636496 -0.047829027406397301 -0.047829274266759141 -0.047828953443512262 -0.047826490216585277 -0.047829121522015426 -0.047828061881824979 -0.047828374511975941 -0.047828348378062276 -0.047828234262026766 -0.047828757808455483 -0.047828069169573072 -0.047828191720027662 -0.047828593641680066 -0.047828394056443381 -0.047828309383977981 -0.047828197621428439 -0.047828061881806466 -0.047828061881787155 -0.047828227716166072 -0.047828080063384112
leaf_weight=0.010744763139713842 0.0010169528468392244 0.0012386853175305745 0.0010847497781789617 0.00101713093083123 0.0031864523031697096 0.0027118746365886182 0.0010218339220954284 0.18958131209332529 0.0013142298121237008 3.6202078650351024 0.15135180959231762 2.3002567728035501 0.13210509846976493 0.011039998370841353 0.19064586562128608 0.014896014308760641 0.0021497037887456818 0.0020364770825835876 0.0010310314028174616 0.0012264978831808557 0.012303861793043325 0.0023925507412059233 0.0021865319504286163 0.0014107569440966472 0.0012626566531253039 0.0011529501534823794 0.0022020195065124426 0.0011657750328595284 0.0018628974066814399 0.0041802689556789119
leaf_count=787 30 32 28 71 148 46 94 2937 20 53772 2361 32986 2112 1299 2895 362 44 42 22 21 284 52 40 28 26 25 51 27 40 96
internal_value=-0.152775 -66.1364 -20.8224 -0.0928476 -71.4155 26.7703 -0.0478292 -0.0478292 -0.0478292 -0.0478292 -0.0478292 -0.0478293 -0.047829 -0.0478266 -0.0478291 -0.0478282 -0.0478282 -0.0478287 -0.0478282 -0.0478284 -0.0478281 -0.0478283 -0.0478285 -0.0478282 -0.0478281 -0.0478282 -0.0478281 -0.0478281 -0.0478281 -0.0478281
internal_weight=6.66999 0.00605226 0.00481358 6.66393 0.00420358 0.00372883 6.65973 6.64767 6.63692 4.14708 4.09431 2.48984 0.474103 0.0120618 0.341998 0.0527742 0.0378782 0.00335071 0.0345275 0.00941314 0.0251144 0.00818665 0.00321756 0.00496908 0.0229647 0.00461763 0.00335497 0.00355833 0.018347 0.00604317
internal_count=100778 136 104 100642 219 76 100423 99030 98243 62320 61140 35923 7368 1393 5256 1180 818 62 756 190 566 169 62 107 522 102 76 79 420 136
is_linear=0
shrinkage=0.05


Tree=32
num_leaves=31
num_cat=0
split_feature=41 41 41 41 41 41 32 41 41 31 23 2 31 32 36 32 32 32 32 36 32 32 32 36 30 36 36 30 31 32
split_gain=68120.1 9031.85 6.60885 4.986 4.71268 0.946312 0.175538 0.158042 0.08333 0.0249836 0.0778175 0.0374843 0.0312808 0.018717 0.0181177 0.0107136 0.00289363 0.00276113 0.00438161 0.00177277 0.00497811 0.00153663 0.00283348 0.00138615 0.0136684 0.0235611 0.00106395 0.0140866 0.00102898 0.000993688
threshold=0.43181818181818193 0.38636363636363641 0.84090909090909105 0.47727272727272735 0.11363636363636365 0.61363636363636376 0.0058823529411764714 0.79545454545454553 0.75000000000000011 0.11176470588235295 0.002935420743639922 0.2101449275362319 0.013725490196078433 0.87647058823529422 0.25500000000000006 0.14705882352941177 0.70000000000000007 0.29607843137254908 0.13921568627450984 0.25500000000000006 0.29215686274509806 0.76274509803921575 0.8176470588235295 0.24500000000000002 0.91500000000000015 0.28500000000000009 0.26500000000000007 0.91500000000000015 0.0058823529411764714 0.5627450980392158
decision_type=2 2 2 2 2 2 2 2 2 2 2 2 2 2 2 2 2 2 2 2 2 2 2 2 2 2 2 2 2 2
left_child=1 4 3 9 -1 23 -4 8 -7 10 11 -2 15 14 16 -12 17 18 -14 20 -17 -22 -23 -5 -25 -26 27 -6 -24 -19
right_child=2 -3 6 5 26 7 -8 -9 -10 -11 12 -13 13 -15 -16 19 -18 29 -20 -21 21 22 28 24 25 -27 -28 -29 -30 -31
leaf_value=-0.050992401876799036 -0.0681569365982507 0.12532361485329366 -0.068517574323866876 -0.06818444469531286 -0.06753929905350696 -0.066706590083330949 -0.04975200544633368 -0.066069349998558444 -0.067573942952773899 -0.059055301224000184 -0.061250508316112395 -0.061878864212059806 -0.059839013432971835 -0.064387361707076873 -0.064084369311654704 -0.061319941260058609 -0.061464379023672466 -0.059979605848934553 -0.062031598349906451 -0.059055301224000184 -0.059182919204818843 -0.060837515639937584 -0.060015211362913636 -0.068154203606799149 -0.063096421070421654 -0.068173425620372236 -0.06753911400032743 -0.065005020927788495 -0.059055301224000184 -0.059055301224000184
leaf_weight=46.396867373204827 4.2460080534237914 8138.0749433189631 1.2770239561794827 11567.509994788605 69.145559489754646 499.61674912262413 51.623766727232713 440.28814494609833 621.25096792216584 55.541878938674927 8.0386915206909162 5.4031097888946533 5.1914831101894467 4.1945157498121253 3.7609198689460746 3.5886618494987479 5.054067611694335 8.7835096716880781 4.0609124004840851 33.164136409759521 31.451120913028717 4.5700967013835934 4.2301889508962622 147.25639064487223 3.7256983518600446 5.9103108197450638 543.22267252206802 5.9555049240589133 8.2105386257171613 4.3467557430267325
leaf_count=800 20 32986 16 53165 384 2525 1389 2112 2895 362 46 30 31 21 19 20 28 52 22 206 194 26 25 710 21 30 2533 32 51 27
internal_value=0.00258376 0.110849 -0.0678431 -0.0679123 -0.0663615 -0.0680285 -0.050205 -0.066872 -0.0671873 -0.059951 -0.0603108 -0.0646415 -0.0599859 -0.0612515 -0.0608299 -0.0595056 -0.0603838 -0.0601398 -0.0608013 -0.059341 -0.059523 -0.05939 -0.0597728 -0.0681824 -0.0680348 -0.0662104 -0.0675147 -0.0673383 -0.0593817 -0.0596736
internal_weight=22335.1 8802.8 13532.3 13479.4 664.721 13285.6 52.9008 1561.16 1120.87 193.837 138.295 9.64912 128.646 35.3922 31.1976 93.2534 27.4367 22.3827 9.2524 85.2147 52.0506 48.4619 17.0108 11724.4 156.892 9.63601 618.324 75.1011 12.4407 13.1303
internal_count=100778 36735 64043 62638 3749 61458 1405 7532 5420 1180 818 50 768 200 179 568 160 132 53 522 316 296 102 53926 761 51 2949 416 76 79
is_linear=0
shrinkage=0.05


Tree=33
num_leaves=31
num_cat=0
split_feature=35 41 41 31 35 41 35 37 33 35 2 23 31 32 32 32 32 31 31 32 36 32 32 32 31 31 32 32 36 23
split_gain=1634.39 547.917 318.57 32.518 14.5205 157.467 12.6463 10.4767 10.1613 9.95841 3.93239 18.3693 7.54892 5.86766 3.00854 2.72584 1.73185 1.49932 4.33133 1.00666 0.323437 1.09617 0.297988 0.601296 0.226002 0.192941 0.192672 0.178177 0.133621 0.0991428
threshold=0.77500000000000013 0.47727272727272735 0.43181818181818193 0.96666666666666679 0.115 0.47727272727272735 0.29500000000000004 0.55500000000000016 0.095000000000000015 0.34500000000000003 0.45652173913043487 0.0048923679060665368 0.013725490196078433 0.84509803921568638 0.29607843137254908 0.13921568627450984 0.14705882352941177 0.31568627450980397 0.029411764705882356 0.70000000000000007 0.25500000000000006 0.29215686274509806 0.76274509803921575 0.8176470588235295 0.0098039215686274526 0.0058823529411764714 0.5627450980392158 0.064705882352941183 0.24500000000000002 0.002935420743639922
decision_type=2 2 2 2 2 2 2 2 2 2 2 2 2 2 2 2 2 2 2 2 2 2 2 2 2 2 2 2 2 2
left_child=4 2 24 10 -1 6 17 8 -8 -10 11 -4 16 14 15 -14 27 18 -6 26 21 -18 -23 -24 -2 -25 -16 -13 -7 -26
right_child=1 -3 3 -5 5 28 7 -9 9 -11 -12 12 13 -15 19 -17 20 -19 -20 -21 -22 22 23 25 29 -27 -28 -29 -30 -31
leaf_value=-0.048237902939466712 -0.048342428253923375 -0.048665048921984123 0.20602466766977981 0.24650392736370336 -0.048345974516557554 -0.048344331544000037 0.19041127853433862 0.15136935033626778 0.25181397852488008 0.63353701153516362 0.11021221330442253 0.12840650224354694 0.12312193211954613 0.1914813293872682 0.12053154193085194 0.16931910450173093 0.13866327164720749 0.11021221330442253 0.1187239649396916 0.14089210809557337 0.11021221330442253 0.11154858209121993 0.13163639343686517 0.12096085313770528 -0.048342432819455848 0.11021221330442253 0.11021221330442253 0.14184891182144085 -0.058553557846612127 -0.066415571896232359
leaf_weight=892.43919039285868 26.097411299378113 71.560848498114183 6.4998103640973559 5.1360422372817984 0.61544165416847629 111.92751537293317 0.78653687238693126 3.1350576663389802 0.32298716000514105 0.36274682627310995 80.122258901596069 5.0022545941174013 5.2124282121658316 4.6887810230255118 13.011846065521246 8.242072328925131 4.7243359684944144 6.4200527966022491 1.0494626914151011 5.6259913444519034 51.360422372817993 48.90666389465332 6.287656873464587 6.2480457127094295 1.0494841169565909 12.583303481340407 6.9336570203304282 4.8602775037288666 3.2994761662608161 2.7397225099848583
leaf_count=79240 2403 6901 37 34 77 10628 4 23 17 27 312 21 21 24 52 39 20 25 21 24 200 191 26 25 95 49 27 21 166 28
internal_value=-0.013114 0.0758629 0.105049 0.121872 -0.0459797 -0.0302252 0.136924 0.203038 0.313062 0.453742 0.119504 0.123418 0.120495 0.138632 0.132283 0.151422 0.11483 0.0992473 0.0569656 0.122213 0.113299 0.115312 0.113822 0.118249 -0.0499992 0.113779 0.116944 0.135031 -0.0486367 -0.0614099
internal_weight=1397.25 376.893 305.332 275.446 1020.36 127.919 12.6923 4.60733 1.47227 0.685734 270.31 190.188 183.688 43.7148 39.026 13.4545 139.973 8.08496 1.6649 25.5715 130.11 78.75 74.0257 25.119 29.8866 18.8313 19.9455 9.86253 115.227 3.78921
internal_count=100778 10550 3649 1123 90228 10988 194 71 48 44 1089 777 740 187 163 60 553 123 98 103 511 311 291 100 2526 74 79 42 10794 123
is_linear=0
shrinkage=0.05


Tree=34
num_leaves=31
num_cat=0
split_feature=4 41 33 41 41 5 13 4 4 41 31 22 39 41 41 15 31 35 35 35 10 31 41 33 35 1 41 36 35 0
split_gain=60182.4 6435.93 3458.6 3797.19 2212 758.804 530.63 456.596 1033.27 217.857 134.471 102.433 148.753 177.492 213.885 55.0297 241.151 130.347 114.711 123.15 51.6657 76.0314 31.5852 23.9985 31.1275 19.3439 17.6823 11.7317 26.2601 10.9913
threshold=6.1595814744972524e-09 0.61363636363636376 0.66500000000000015 0.47727272727272735 0.47727272727272735 1.0191326692259243e-07 1.0000000180025095e-35 2.2428123133610584e-07 2.1631000825146234e-07 0.65909090909090928 0.39411764705882357 0.0068493150684931512 0.095000000000000015 0.47727272727272735 0.65909090909090928 0.00020085698982324587 0.021568627450980395 0.055000000000000007 0.03500000000000001 0.015000000000000001 1.0000000180025095e-35 0.26078431372549021 0.84090909090909105 0.12500000000000003 0.13500000000000004 1.0000000180025095e-35 0.43181818181818193 0.7400000000000001 0.99500000000000011 0.0001747925794723595
decision_type=2 2 2 2 2 2 2 2 2 2 2 2 2 2 2 2 2 2 2 2 2 2 2 2 2 2 2 2 2 2
left_child=2 4 5 26 25 11 15 8 -8 -5 -9 12 13 -1 -15 20 -17 18 19 -18 27 -22 -3 -14 -25 -2 -4 -6 -29 -30
right_child=1 22 3 9 6 -7 7 10 -10 -11 -12 -13 23 14 -16 16 17 -19 -20 -21 21 -23 -24 24 -26 -27 -28 28 29 -31
leaf_value=-0.081892362870353577 -0.08847347859360262 -0.085070331437423749 -0.089087421010236728 0.085370497023705735 0.084162275382229132 0.083240372568544926 2.5594850152826663 0.15448585159379907 0.1323292130956007 -0.088893267529091449 0.59169688468947412 -0.092693197498814467 -0.086929433361760219 0.084452580290869536 -0.087453025627415928 0.80838571461560793 0.80951245601515598 0.084729654615898625 0.099749991242139555 0.22308580397266226 0.083460355321342328 0.42110003378976074 -0.051705847493505458 0.067841358212266917 -0.069042348421431962 -0.059133179596845699 -0.070902163567628546 0.08346011853066343 0.14861872294818676 0.27869841010949925
leaf_weight=83.710560679429307 109.32307223975658 554.48758693681123 555.74866204391367 644.07560538492362 12847.632117474517 62.696498351249829 0.7673590779300693 5.6288713892228639 1.023145215663259 18.448562546558946 2.5578640342110646 9341.4981897976832 592.10563504695892 50.389905393790286 28.231759389309502 1.3056401398499264 1.7905050236455677 39.391095774325677 3.0694363117218018 1.7905045320122888 4.0925817489627674 2.8136502723951686 81.339665797815883 5.6328452229499844 15.810506016016005 115.5558341795404 176.00556790828705 14.32402276992798 3.8367918133735648 2.8156936715386109
leaf_count=365 424 2335 2169 2540 50408 254 46 30 5 84 36 35795 2288 198 110 24 33 155 13 12 16 30 1395 22 61 1055 777 56 20 22
internal_value=0.0040186 0.0745647 -0.0800536 -0.00619983 0.0820726 -0.0901687 0.0847759 0.449272 1.17254 0.080518 0.291088 -0.0912433 -0.0737864 -0.0312239 0.0227241 0.0844945 0.1383 0.119298 0.324046 0.516299 0.0842967 0.221017 -0.0808021 -0.0850476 -0.0330851 -0.0733967 -0.0847134 0.0842233 0.121585 0.203676
internal_weight=25367.9 13793.5 11574.4 1394.28 13157.7 10180.1 12932.8 9.97724 1.7905 662.524 8.18674 10117.4 775.881 162.332 78.6217 12922.9 47.3472 46.0415 6.65045 3.58101 12875.5 6.90623 635.827 613.549 21.4434 224.879 731.754 12868.6 20.9765 6.65249
internal_count=100778 56115 44663 5570 52385 39093 50906 117 51 2624 66 38839 3044 673 308 50789 237 213 58 45 50552 46 3730 2371 83 1479 2946 50506 98 42
is_linear=0
shrinkage=0.05


Tree=35
num_leaves=31
num_cat=0
split_feature=9 36 5 12 12 4 15 34 41 41 35 41 41 41 41 41 0 4 41 41 4 41 35 2 23 1 32 32 1 0
split_gain=31931 231753 342714 19830 3686.87 5084.15 292.702 3035.02 6.19949e-13 4.74752e-13 1.80522e-13 8.14904e-14 6.40876e-14 3.14269e-13 3.32789e-14 2.83107e-14 1.7885e-14 3.47331e-14 6.55032e-15 5.77316e-15 5.56499e-15 2.51882e-15 2.19182e-15 1.9984e-15 3.56139e-15 1.92901e-15 9.45424e-16 1.50054e-15 6.66134e-16 6.10623e-16
threshold=1.0000000180025095e-35 1.0000000180025095e-35 1.0538671534579693e-06 0.00046797700227303127 1.0000000180025095e-35 1.5761282008272381e-07 0.00020085698982324587 0.03500000000000001 0.84090909090909105 0.11363636363636365 0.50500000000000012 0.43181818181818193 0.47727272727272735 0.43181818181818193 0.65909090909090928 0.65909090909090928 0.0001048755476834157 1.9529496557376581e-07 0.79545454545454553 0.38636363636363641 2.5725310864076759e-08 0.75000000000000011 0.24500000000000002 0.2101449275362319 0.010763209393346381 0.75000000000000011 0.76274509803921575 0.28431372549019612 0.75000000000000011 0.00089726857462477875
decision_type=2 2 2 2 2 2 2 2 2 2 2 2 2 2 2 2 2 2 2 2 2 2 2 2 2 2 2 2 2 2
left_child=3 9 -3 4 6 -6 8 -8 10 -2 11 19 13 -12 -14 28 17 -11 21 -1 25 -17 -10 24 -15 -16 27 -26 -13 -18
right_child=1 2 -4 -5 5 -7 7 -9 22 16 12 15 14 23 20 18 29 -19 -20 -21 -22 -23 -24 -25 26 -27 -28 -29 -30 -31
leaf_value=-0.047826950973975095 -0.047826269434045957 -0.047826941356134987 -1124.0816702894731 -198.58707086762095 -146.2580637907482 -0.047826975246532816 70.629503697001979 -25.105909067662296 -0.047826292115007829 -0.047826968800531618 -0.047826952477131764 -0.047826975235248287 -0.047826972150343129 -0.047826782850099683 -0.04782692872701759 -0.047826928078645012 -0.047826974906140712 -0.047826603504869225 -0.047826906315512605 -0.047826995505328526 -0.047826906782427007 -0.047826953871415841 -0.04782620083401707 -0.047826658272339957 -0.04782671026827226 -0.047826951012964018 -0.047826721253713664 -0.047826663265893132 -0.047826971281127034 -0.047826936789892159
leaf_weight=0.0074066591753149105 0.0030456494931739913 0.0015575713998305938 0.0012010314529483975 0.0012591968977938564 0.0010259199579024506 0.0014141176518001207 0.0014148808259940573 0.0019953642028482932 0.001042306231966105 0.0017489793654021945 0.046827124264252784 0.78162508594014424 0.079752663618837594 0.0011189978022230216 0.030722276753294864 0.012376790916043254 0.012692180006614548 0.0010362632961005203 0.01162654765357729 0.65718930032926437 0.026137834862571652 0.040100940192658432 0.0017817897336067645 0.0043699926900444561 0.0026753645615826827 0.014163342526444467 0.0017530397244627238 0.004650386591492861 0.1509062411969353 0.0011410964485766813
leaf_count=403 782 109 96 104 66 82 97 116 363 135 2509 40587 4275 83 1677 677 662 245 649 32983 1466 2133 762 362 199 748 128 370 7801 109
internal_value=-0.93986 -60.2545 -489.426 -0.233667 -0.10096 -61.5223 -0.0212261 14.6139 -0.047827 -0.0478268 -0.047827 -0.047827 -0.0478269 -0.0478269 -0.0478269 -0.047827 -0.0478269 -0.0478268 -0.0478269 -0.047827 -0.0478269 -0.0478269 -0.0478262 -0.0478267 -0.0478267 -0.0478269 -0.0478267 -0.0478267 -0.047827 -0.047827
internal_weight=1.90576 0.0224228 0.0027586 1.88334 1.88208 0.00244004 1.87964 0.00341025 1.87623 0.0196642 1.8734 1.66123 0.212171 0.0613949 0.150776 0.996636 0.0166185 0.00278524 0.0641043 0.664596 0.0710235 0.0524777 0.0028241 0.0145678 0.0101978 0.0448856 0.00907879 0.00732575 0.932531 0.0138333
internal_count=100778 2138 205 98640 98536 148 98388 213 98175 1933 97050 85233 11817 3651 8166 51847 1151 380 3459 33386 3891 2810 1125 1142 780 2425 697 569 48388 771
is_linear=0
shrinkage=0.05


Tree=36
num_leaves=31
num_cat=0
split_feature=13 41 41 35 41 41 41 41 41 41 1 41 33 41 41 31 30 31 32 32 32 31 32 35 4 4 33 36 36 24
split_gain=793828 2.58904e-12 2.04636e-12 5.90195e-13 4.07674e-13 2.14107e-13 1.06834e-12 1.09079e-13 7.57172e-14 2.28428e-14 2.11359e-14 1.88738e-14 1.34224e-14 9.45077e-15 8.92342e-15 8.1983e-15 1.57842e-14 1.38691e-14 4.23663e-15 5.29177e-15 2.583e-15 1.51268e-15 6.74807e-16 4.44089e-16 5.82867e-16 6.73767e-15 1.49945e-14 4.64906e-16 1.26461e-15 4.44089e-16
threshold=1.0000000180025095e-35 0.84090909090909105 0.11363636363636365 0.50500000000000012 0.43181818181818193 0.47727272727272735 0.43181818181818193 0.61363636363636376 0.65909090909090928 0.79545454545454553 0.75000000000000011 0.38636363636363641 0.13500000000000004 0.75000000000000011 0.79545454545454553 0.11176470588235295 0.91500000000000015 0.013725490196078433 0.73137254901960791 0.29607843137254908 0.16274509803921569 0.013725490196078433 0.76274509803921575 0.095000000000000015 7.6451275948171784e-08 6.7755396219469778e-08 0.23500000000000001 0.24500000000000002 0.27500000000000008 0.075000000000000025
decision_type=2 2 2 2 2 2 2 2 2 2 2 2 2 2 2 2 2 2 2 2 2 2 2 2 2 2 2 2 2 2
left_child=1 2 -1 4 11 6 21 -7 23 13 14 -4 -3 -10 -9 16 -8 20 19 -19 -18 -5 -22 29 25 27 -27 -25 -29 -6
right_child=-2 12 3 5 8 7 15 10 9 -11 -12 -13 -14 -15 -16 -17 17 18 -20 -21 22 -23 -24 24 -26 26 -28 28 -30 -31
leaf_value=-0.047826364452396963 -1323.6198899164287 -0.047826458808162504 -0.047827387349934525 -0.047827387188671924 -0.047827414310859753 -0.047827413736668878 -0.047827176659950621 -0.047827348205150985 -0.047827348711286466 -0.047827316594701796 -0.04782738906710686 -0.047827453035185478 -0.047826257312084293 -0.04782738940624276 -0.047827315787522098 -0.047826934884022718 -0.047827024022808001 -0.047827111836564601 -0.047827158142474159 -0.047826979210266032 -0.047826943893560035 -0.047827341303739217 -0.047826976721540182 -0.047827413914378489 -0.047827414363170548 -0.047827180094175713 -0.047827414241401342 -0.047827347798045129 -0.047827414227619575 -0.047827413935754133
leaf_weight=0.0046049427573698889 0.0011332968128406886 0.0010329018374476409 0.011106262703833969 0.06839346850029232 1.1716212384240541 0.12137256071562021 0.0012245993602846275 0.046248255946397074 0.018647647718363247 0.01743966447065759 0.021244809971904033 0.98577408116398146 0.004136495287029085 0.06043523580034782 0.039178852886834648 0.0058290238121116991 0.0013839494822605056 0.0013789977438136711 0.0010007245145970955 0.0016546003826078959 0.0074005941569339484 0.0018421610948280423 0.0019790355454460951 0.049056190600951871 0.17669535087195967 0.0010226556405541478 0.0020630471135518746 0.0010043365273304508 0.0024989028315758333 0.03020670751498844
leaf_count=784 141 249 441 2433 40516 4273 54 1768 682 649 748 32983 1156 2144 1463 332 69 62 43 85 395 73 102 1693 6158 45 71 37 86 1043
internal_value=-0.572558 -0.0478274 -0.0478274 -0.0478274 -0.0478274 -0.0478274 -0.0478273 -0.0478274 -0.0478274 -0.0478274 -0.0478273 -0.0478275 -0.0478263 -0.0478274 -0.0478273 -0.047827 -0.047827 -0.047827 -0.0478271 -0.047827 -0.047827 -0.0478274 -0.047827 -0.0478274 -0.0478274 -0.0478274 -0.0478273 -0.0478274 -0.0478274 -0.0478274
internal_weight=2.85861 2.85748 2.85231 2.8477 2.52757 0.320132 0.0920872 0.228044 1.53069 0.0965225 0.106672 0.99688 0.0051694 0.0790829 0.0854271 0.0218515 0.0160225 0.0147979 0.00403432 0.0030336 0.0107636 0.0702356 0.00937963 1.43417 0.23234 0.0556451 0.0030857 0.0525594 0.00350324 1.20183
internal_count=100778 100637 99232 98448 86548 11900 3648 8252 53124 3475 3979 33424 1405 2826 3231 1142 810 756 190 147 566 2506 497 49649 8090 1932 116 1816 123 41559
is_linear=0
shrinkage=0.05


Tree=37
num_leaves=31
num_cat=0
split_feature=34 32 41 41 1 41 41 41 30 41 41 32 41 24 32 32 32 23 39 4 23 24 33 23 32 23 32 32 32 23
split_gain=9.90354 817.926 3.83284e-07 3.01614e-07 8.2508e-08 6.84814e-08 8.69584e-08 1.81469e-08 9.48935e-08 1.54506e-08 1.12457e-08 1.04584e-08 2.7084e-09 1.29978e-09 7.41723e-10 5.49931e-10 5.60862e-10 3.54127e-10 2.19165e-10 1.88517e-10 1.85268e-10 1.16232e-10 1.35311e-09 1.12396e-10 1.62188e-10 1.27442e-10 8.0228e-11 7.29005e-11 5.44531e-11 5.27776e-11
threshold=0.99500000000000011 0.029411764705882356 0.84090909090909105 0.11363636363636365 1.0000000180025095e-35 0.43181818181818193 0.47727272727272735 0.43181818181818193 0.91500000000000015 0.65909090909090928 0.79545454545454553 0.0058823529411764714 0.75000000000000011 0.9850000000000001 0.14705882352941177 0.76274509803921575 0.28431372549019612 0.016634050880626226 0.9850000000000001 1.3406147915082254e-08 0.059686888454011745 0.47000000000000003 0.03500000000000001 0.04403131115459883 0.89215686274509809 0.089041095890410968 0.025490196078431376 0.915686274509804 0.072549019607843143 0.085127201565557739
decision_type=2 2 2 2 2 2 2 2 2 2 2 2 2 2 2 2 2 2 2 2 2 2 2 2 2 2 2 2 2 2
left_child=2 13 3 26 7 -6 21 -5 10 -8 19 -4 -11 18 17 16 20 -10 -2 -9 -16 -7 -23 24 -17 27 -1 -25 -19 -22
right_child=1 -3 11 4 5 6 9 8 14 12 -12 -13 -14 -15 15 23 -18 28 -20 -21 29 22 -24 25 -26 -27 -28 -29 -30 -31
leaf_value=-0.047830551718807554 -0.047894692497525253 8.2320568514054031 -0.04789583700813229 -0.047894548164507472 -0.047898201867061285 -0.047870710472020489 -0.047896187258273021 -0.047892587000080242 -0.047883421711229175 -0.047892540706178488 -0.047890913984221843 -0.047835162968779044 -0.04789470502507874 -0.047884079176574584 -0.047876273928131707 -0.047875270635264658 -0.047871663360691846 -0.047874908436203352 -0.047893164108193408 -0.047896168548814719 -0.047871649507893022 -0.047870710472020149 -0.04788388826334572 -0.047875270873560548 -0.047880949526773769 -0.047878035711999722 -0.047840728886642876 -0.047871997611773062 -0.047878129012229292 -0.047874796314266554
leaf_weight=0.0019521958601856895 2.1592761725354133 0.03019341066752268 0.0072992912901081999 3.6844206155510753 51.853365779505239 0.19861953402869303 80.20565174458757 0.03761141013819691 0.025328179704956599 3.1883667327267209 2.9777292980579659 0.26321723418513521 2.6442779484431598 0.030142133007757255 0.11352832789998502 0.025685488304588944 0.38613322778837755 0.031394900812301785 0.26313776429742564 1.58706496438269 0.036681812081951648 0.14312289952067658 0.022549012792296708 0.045925927173811942 0.024628005921840668 0.027825304714497179 0.24048426607793982 0.02701672725379467 0.022553578310180455 0.0209255411173217
leaf_count=39 1455 34 15 2472 33077 204 52860 27 21 2213 2112 1389 1781 39 105 24 389 30 180 1192 37 150 18 43 21 25 759 27 20 20
internal_value=-0.0462332 0.0528004 -0.0478963 -0.0478964 -0.0478965 -0.0478968 -0.0478959 -0.0478918 -0.04789 -0.047896 -0.0478927 -0.0478368 -0.0478935 -0.0478944 -0.047874 -0.0478734 -0.0478727 -0.0478785 -0.0478945 -0.0478961 -0.0478751 -0.0478715 -0.0478725 -0.0478761 -0.0478781 -0.0478752 -0.0478406 -0.0478741 -0.0478763 -0.0478728
internal_weight=150.326 2.48275 147.843 147.573 147.33 138.256 86.4026 9.07445 5.39003 86.0383 4.60241 0.270517 5.83264 2.45256 0.787627 0.70835 0.557269 0.0792767 2.42241 1.62468 0.171136 0.364291 0.165672 0.151081 0.0503135 0.100768 0.242436 0.0729427 0.0539485 0.0576074
internal_count=100778 1708 99070 97666 96868 90303 57226 6565 4093 56854 3331 1404 3994 1674 762 691 551 71 1635 1219 162 372 168 140 45 95 798 70 50 57
is_linear=0
shrinkage=0.05


Tree=38
num_leaves=31
num_cat=0
split_feature=41 41 0 35 0 0 41 41 28 41 41 32 41 41 41 31 30 31 1 32 36 32 32 32 32 38 36 32 32 32
split_gain=9518.53 3736.34 0.23789 1.10926 0.00996758 0.31324 0.00113533 0.00105461 0.0002418 0.000188196 0.000652355 4.50715e-05 3.55031e-05 1.83101e-05 1.26022e-05 5.0241e-06 1.0573e-05 6.92671e-06 6.60479e-06 3.27672e-06 3.26297e-06 2.3371e-06 5.00028e-07 8.89217e-07 4.95514e-07 4.51864e-07 3.78774e-07 1.02584e-06 3.26128e-07 5.86042e-07
threshold=0.65909090909090928 0.7045454545454547 0.92616761443087559 0.88500000000000012 0.25468444112985927 0.30444206208632429 0.84090909090909105 0.11363636363636365 0.49500000000000005 0.47727272727272735 0.43181818181818193 0.0058823529411764714 0.79545454545454553 0.38636363636363641 0.43181818181818193 0.11176470588235295 0.91500000000000015 0.013725490196078433 1.0000000180025095e-35 0.87647058823529422 0.25500000000000006 0.14705882352941177 0.70000000000000007 0.29607843137254908 0.13921568627450984 0.015000000000000001 0.25500000000000006 0.29215686274509806 0.76274509803921575 0.8176470588235295
decision_type=2 2 2 2 2 2 2 2 2 2 2 2 2 2 2 2 2 2 2 2 2 2 2 2 2 2 2 2 2 2
left_child=7 2 4 -4 -2 -6 12 -1 14 10 13 -8 -3 -10 -9 16 18 21 -12 20 22 -18 23 24 -19 -16 27 -23 -29 -30
right_child=1 6 3 -5 5 -7 11 8 9 -11 15 -13 -14 -15 25 -17 17 19 -20 -21 -22 26 -24 -25 -26 -27 -28 28 29 -31
